{"learner":{"attributes":{"scikit_learn":"{\"_estimator_type\": \"classifier\"}"},"feature_names":["N","P","K","temperature","humidity","ph","rainfall"],"feature_types":["int","int","int","float","float","float","float"],"gradient_booster":{"model":{"gbtree_model_param":{"num_parallel_tree":"1","num_trees":"2200"},"iteration_indptr":[0,22,44,66,88,110,132,154,176,198,220,242,264,286,308,330,352,374,396,418,440,462,484,506,528,550,572,594,616,638,660,682,704,726,748,770,792,814,836,858,880,902,924,946,968,990,1012,1034,1056,1078,1100,1122,1144,1166,1188,1210,1232,1254,1276,1298,1320,1342,1364,1386,1408,1430,1452,1474,1496,1518,1540,1562,1584,1606,1628,1650,1672,1694,1716,1738,1760,1782,1804,1826,1848,1870,1892,1914,1936,1958,1980,2002,2024,2046,2068,2090,2112,2134,2156,2178,2200],"tree_info":[0,1,2,3,4,5,6,7,8,9,10,11,12,13,14,15,16,17,18,19,20,21,0,1,2,3,4,5,6,7,8,9,10,11,12,13,14,15,16,17,18,19,20,21,0,1,2,3,4,5,6,7,8,9,10,11,12,13,14,15,16,17,18,19,20,21,0,1,2,3,4,5,6,7,8,9,10,11,12,13,14,15,16,17,18,19,20,21,0,1,2,3,4,5,6,7,8,9,10,11,12,13,14,15,16,17,18,19,20,21,0,1,2,3,4,5,6,7,8,9,10,11,12,13,14,15,16,17,18,19,20,21,0,1,2,3,4,5,6,7,8,9,10,11,12,13,14,15,16,17,18,19,20,21,0,1,2,3,4,5,6,7,8,9,10,11,12,13,14,15,16,17,18,19,20,21,0,1,2,3,4,5,6,7,8,9,10,11,12,13,14,15,16,17,18,19,20,21,0,1,2,3,4,5,6,7,8,9,10,11,12,13,14,15,16,17,18,19,20,21,0,1,2,3,4,5,6,7,8,9,10,11,12,13,14,15,16,17,18,19,20,21,0,1,2,3,4,5,6,7,8,9,10,11,12,13,14,15,16,17,18,19,20,21,0,1,2,3,4,5,6,7,8,9,10,11,12,13,14,15,16,17,18,19,20,21,0,1,2,3,4,5,6,7,8,9,10,11,12,13,14,15,16,17,18,19,20,21,0,1,2,3,4,5,6,7,8,9,10,11,12,13,14,15,16,17,18,19,20,21,0,1,2,3,4,5,6,7,8,9,10,11,12,13,14,15,16,17,18,19,20,21,0,1,2,3,4,5,6,7,8,9,10,11,12,13,14,15,16,17,18,19,20,21,0,1,2,3,4,5,6,7,8,9,10,11,12,13,14,15,16,17,18,19,20,21,0,1,2,3,4,5,6,7,8,9,10,11,12,13,14,15,16,17,18,19,20,21,0,1,2,3,4,5,6,7,8,9,10,11,12,13,14,15,16,17,18,19,20,21,0,1,2,3,4,5,6,7,8,9,10,11,12,13,14,15,16,17,18,19,20,21,0,1,2,3,4,5,6,7,8,9,10,11,12,13,14,15,16,17,18,19,20,21,0,1,2,3,4,5,6,7,8,9,10,11,12,13,14,15,16,17,18,19,20,21,0,1,2,3,4,5,6,7,8,9,10,11,12,13,14,15,16,17,18,19,20,21,0,1,2,3,4,5,6,7,8,9,10,11,12,13,14,15,16,17,18,19,20,21,0,1,2,3,4,5,6,7,8,9,10,11,12,13,14,15,16,17,18,19,20,21,0,1,2,3,4,5,6,7,8,9,10,11,12,13,14,15,16,17,18,19,20,21,0,1,2,3,4,5,6,7,8,9,10,11,12,13,14,15,16,17,18,19,20,21,0,1,2,3,4,5,6,7,8,9,10,11,12,13,14,15,16,17,18,19,20,21,0,1,2,3,4,5,6,7,8,9,10,11,12,13,14,15,16,17,18,19,20,21,0,1,2,3,4,5,6,7,8,9,10,11,12,13,14,15,16,17,18,19,20,21,0,1,2,3,4,5,6,7,8,9,10,11,12,13,14,15,16,17,18,19,20,21,0,1,2,3,4,5,6,7,8,9,10,11,12,13,14,15,16,17,18,19,20,21,0,1,2,3,4,5,6,7,8,9,10,11,12,13,14,15,16,17,18,19,20,21,0,1,2,3,4,5,6,7,8,9,10,11,12,13,14,15,16,17,18,19,20,21,0,1,2,3,4,5,6,7,8,9,10,11,12,13,14,15,16,17,18,19,20,21,0,1,2,3,4,5,6,7,8,9,10,11,12,13,14,15,16,17,18,19,20,21,0,1,2,3,4,5,6,7,8,9,10,11,12,13,14,15,16,17,18,19,20,21,0,1,2,3,4,5,6,7,8,9,10,11,12,13,14,15,16,17,18,19,20,21,0,1,2,3,4,5,6,7,8,9,10,11,12,13,14,15,16,17,18,19,20,21,0,1,2,3,4,5,6,7,8,9,10,11,12,13,14,15,16,17,18,19,20,21,0,1,2,3,4,5,6,7,8,9,10,11,12,13,14,15,16,17,18,19,20,21,0,1,2,3,4,5,6,7,8,9,10,11,12,13,14,15,16,17,18,19,20,21,0,1,2,3,4,5,6,7,8,9,10,11,12,13,14,15,16,17,18,19,20,21,0,1,2,3,4,5,6,7,8,9,10,11,12,13,14,15,16,17,18,19,20,21,0,1,2,3,4,5,6,7,8,9,10,11,12,13,14,15,16,17,18,19,20,21,0,1,2,3,4,5,6,7,8,9,10,11,12,13,14,15,16,17,18,19,20,21,0,1,2,3,4,5,6,7,8,9,10,11,12,13,14,15,16,17,18,19,20,21,0,1,2,3,4,5,6,7,8,9,10,11,12,13,14,15,16,17,18,19,20,21,0,1,2,3,4,5,6,7,8,9,10,11,12,13,14,15,16,17,18,19,20,21,0,1,2,3,4,5,6,7,8,9,10,11,12,13,14,15,16,17,18,19,20,21,0,1,2,3,4,5,6,7,8,9,10,11,12,13,14,15,16,17,18,19,20,21,0,1,2,3,4,5,6,7,8,9,10,11,12,13,14,15,16,17,18,19,20,21,0,1,2,3,4,5,6,7,8,9,10,11,12,13,14,15,16,17,18,19,20,21,0,1,2,3,4,5,6,7,8,9,10,11,12,13,14,15,16,17,18,19,20,21,0,1,2,3,4,5,6,7,8,9,10,11,12,13,14,15,16,17,18,19,20,21,0,1,2,3,4,5,6,7,8,9,10,11,12,13,14,15,16,17,18,19,20,21,0,1,2,3,4,5,6,7,8,9,10,11,12,13,14,15,16,17,18,19,20,21,0,1,2,3,4,5,6,7,8,9,10,11,12,13,14,15,16,17,18,19,20,21,0,1,2,3,4,5,6,7,8,9,10,11,12,13,14,15,16,17,18,19,20,21,0,1,2,3,4,5,6,7,8,9,10,11,12,13,14,15,16,17,18,19,20,21,0,1,2,3,4,5,6,7,8,9,10,11,12,13,14,15,16,17,18,19,20,21,0,1,2,3,4,5,6,7,8,9,10,11,12,13,14,15,16,17,18,19,20,21,0,1,2,3,4,5,6,7,8,9,10,11,12,13,14,15,16,17,18,19,20,21,0,1,2,3,4,5,6,7,8,9,10,11,12,13,14,15,16,17,18,19,20,21,0,1,2,3,4,5,6,7,8,9,10,11,12,13,14,15,16,17,18,19,20,21,0,1,2,3,4,5,6,7,8,9,10,11,12,13,14,15,16,17,18,19,20,21,0,1,2,3,4,5,6,7,8,9,10,11,12,13,14,15,16,17,18,19,20,21,0,1,2,3,4,5,6,7,8,9,10,11,12,13,14,15,16,17,18,19,20,21,0,1,2,3,4,5,6,7,8,9,10,11,12,13,14,15,16,17,18,19,20,21,0,1,2,3,4,5,6,7,8,9,10,11,12,13,14,15,16,17,18,19,20,21,0,1,2,3,4,5,6,7,8,9,10,11,12,13,14,15,16,17,18,19,20,21,0,1,2,3,4,5,6,7,8,9,10,11,12,13,14,15,16,17,18,19,20,21,0,1,2,3,4,5,6,7,8,9,10,11,12,13,14,15,16,17,18,19,20,21,0,1,2,3,4,5,6,7,8,9,10,11,12,13,14,15,16,17,18,19,20,21,0,1,2,3,4,5,6,7,8,9,10,11,12,13,14,15,16,17,18,19,20,21,0,1,2,3,4,5,6,7,8,9,10,11,12,13,14,15,16,17,18,19,20,21,0,1,2,3,4,5,6,7,8,9,10,11,12,13,14,15,16,17,18,19,20,21,0,1,2,3,4,5,6,7,8,9,10,11,12,13,14,15,16,17,18,19,20,21,0,1,2,3,4,5,6,7,8,9,10,11,12,13,14,15,16,17,18,19,20,21,0,1,2,3,4,5,6,7,8,9,10,11,12,13,14,15,16,17,18,19,20,21,0,1,2,3,4,5,6,7,8,9,10,11,12,13,14,15,16,17,18,19,20,21,0,1,2,3,4,5,6,7,8,9,10,11,12,13,14,15,16,17,18,19,20,21,0,1,2,3,4,5,6,7,8,9,10,11,12,13,14,15,16,17,18,19,20,21,0,1,2,3,4,5,6,7,8,9,10,11,12,13,14,15,16,17,18,19,20,21,0,1,2,3,4,5,6,7,8,9,10,11,12,13,14,15,16,17,18,19,20,21,0,1,2,3,4,5,6,7,8,9,10,11,12,13,14,15,16,17,18,19,20,21,0,1,2,3,4,5,6,7,8,9,10,11,12,13,14,15,16,17,18,19,20,21,0,1,2,3,4,5,6,7,8,9,10,11,12,13,14,15,16,17,18,19,20,21,0,1,2,3,4,5,6,7,8,9,10,11,12,13,14,15,16,17,18,19,20,21,0,1,2,3,4,5,6,7,8,9,10,11,12,13,14,15,16,17,18,19,20,21,0,1,2,3,4,5,6,7,8,9,10,11,12,13,14,15,16,17,18,19,20,21,0,1,2,3,4,5,6,7,8,9,10,11,12,13,14,15,16,17,18,19,20,21,0,1,2,3,4,5,6,7,8,9,10,11,12,13,14,15,16,17,18,19,20,21,0,1,2,3,4,5,6,7,8,9,10,11,12,13,14,15,16,17,18,19,20,21,0,1,2,3,4,5,6,7,8,9,10,11,12,13,14,15,16,17,18,19,20,21,0,1,2,3,4,5,6,7,8,9,10,11,12,13,14,15,16,17,18,19,20,21,0,1,2,3,4,5,6,7,8,9,10,11,12,13,14,15,16,17,18,19,20,21,0,1,2,3,4,5,6,7,8,9,10,11,12,13,14,15,16,17,18,19,20,21,0,1,2,3,4,5,6,7,8,9,10,11,12,13,14,15,16,17,18,19,20,21],"trees":[{"base_weights":[-1.9515103E-2,-1.5601707E-1,4.5950885E0,-1.3857423E-1,2.8704143E0],"categories":[],"categories_nodes":[],"categories_segments":[],"categories_sizes":[],"default_left":[0,0,0,0,0],"id":0,"left_children":[1,-1,3,-1,-1],"loss_changes":[3.5746927E2,0E0,3.8528073E2,0E0,0E0],"parents":[2147483647,0,0,2,2],"right_children":[2,-1,4,-1,-1],"split_conditions":[1.2E2,-1.5601707E-1,8.4134186E1,-1.3857423E-1,2.8704143E0],"split_indices":[1,0,4,0,0],"split_type":[0,0,0,0,0],"sum_hessian":[1.5272728E2,1.3858264E2,1.4144629E1,7.46281E0,6.681818E0],"tree_param":{"num_deleted":"0","num_feature":"7","num_nodes":"5","size_leaf_vector":"1"}},{"base_weights":[-6.5050498E-3,-1.5580298E-1,1.5998675E0,-1.5200596E-1,2.8799052E0],"categories":[],"categories_nodes":[],"categories_segments":[],"categories_sizes":[],"default_left":[0,0,0,0,0],"id":1,"left_children":[1,-1,3,-1,-1],"loss_changes":[1.27472824E2,0E0,6.3591046E2,0E0,0E0],"parents":[2147483647,0,0,2,2],"right_children":[2,-1,4,-1,-1],"split_conditions":[7E1,-1.5580298E-1,6.9E1,-1.5200596E-1,2.8799052E0],"split_indices":[1,0,0,0,0],"split_type":[0,0,0,0,0],"sum_hessian":[1.5272728E2,1.1628099E2,3.644628E1,2.959091E1,6.855372E0],"tree_param":{"num_deleted":"0","num_feature":"7","num_nodes":"5","size_leaf_vector":"1"}},{"base_weights":[-2.3263787E-8,8.180691E-1,-1.5548381E-1,-1.526552E-1,2.5742447E0,-1.4511232E-1,5.256897E0,2.9685155E-1,7.6020184E0,-1.1821905E-1,3.9115193E-1,2.7979786E0,-9.781592E-2],"categories":[],"categories_nodes":[],"categories_segments":[],"categories_sizes":[],"default_left":[0,0,0,0,0,0,0,0,0,0,0,0,0],"id":2,"left_children":[1,3,-1,-1,5,-1,7,9,11,-1,-1,-1,-1],"loss_changes":[6.560256E1,1.411474E2,0E0,0E0,2.1576399E2,0E0,1.5977298E2,4.3490086E0,1.3180042E2,0E0,0E0,0E0,0E0],"parents":[2147483647,0,0,1,1,4,4,6,6,7,7,8,8],"right_children":[2,4,-1,-1,6,-1,8,10,12,-1,-1,-1,-1],"split_conditions":[7.503248E1,5.9844994E1,-1.5548381E-1,-1.526552E-1,6.4988956E0,-1.4511232E-1,5.8E1,5.4E1,2.6E1,-1.1821905E-1,3.9115193E-1,2.7979786E0,-9.781592E-2],"split_indices":[6,6,0,0,5,0,1,1,2,0,0,0,0],"split_type":[0,0,0,0,0,0,0,0,0,0,0,0,0],"sum_hessian":[1.5272728E2,5.9008266E1,9.371901E1,3.401653E1,2.4991735E1,1.2061983E1,1.2929752E1,4.512397E0,8.417356E0,3.0371902E0,1.4752066E0,6.768595E0,1.6487603E0],"tree_param":{"num_deleted":"0","num_feature":"7","num_nodes":"13","size_leaf_vector":"1"}},{"base_weights":[-3.9030183E-2,7.2834573E0,-5.133229E-1,-1.0616623E-1,2.8500845E0,5.76699E-2,-1.5605296E-1],"categories":[],"categories_nodes":[],"categories_segments":[],"categories_sizes":[],"default_left":[0,0,0,0,0,0,0],"id":3,"left_children":[1,3,5,-1,-1,-1,-1],"loss_changes":[5.37634E2,1.6280402E2,8.026619E-1,0E0,0E0,0E0,0E0],"parents":[2147483647,0,0,1,1,2,2],"right_children":[2,4,6,-1,-1,-1,-1],"split_conditions":[1.9870707E1,2.6E1,2.1179197E1,-1.0616623E-1,2.8500845E0,5.76699E-2,-1.5605296E-1],"split_indices":[4,2,4,0,0,0,0],"split_type":[0,0,0,0,0,0,0],"sum_hessian":[1.5272728E2,8.417356E0,1.4430992E2,2.0826447E0,6.3347106E0,1.1280992E0,1.4318182E2],"tree_param":{"num_deleted":"0","num_feature":"7","num_nodes":"7","size_leaf_vector":"1"}},{"base_weights":[-4.5535207E-2,-3.0031133E-1,2.4123144E0,-5.1126236E-1,5.7684237E-1,-1.5581575E-1,-1.4636645E-1,-1.50498E-1,4.1892214E0,6.6801615E-2,-1.04689665E-1,2.4262583E0,-1.1903808E-1],"categories":[],"categories_nodes":[],"categories_segments":[],"categories_sizes":[],"default_left":[0,0,0,0,0,0,0,0,0,0,0,0,0],"id":4,"left_children":[1,3,-1,5,7,-1,9,-1,11,-1,-1,-1,-1],"loss_changes":[3.1913422E2,2.8049625E1,0E0,2.839756E-1,1.17225555E2,0E0,3.795529E-1,0E0,1.2657991E2,0E0,0E0,0E0,0E0],"parents":[2147483647,0,0,1,1,3,3,4,4,6,6,8,8],"right_children":[2,4,-1,6,8,-1,10,-1,12,-1,-1,-1,-1],"split_conditions":[9.495032E1,9.073892E1,2.4123144E0,9.026457E1,1.2934494E2,-1.5581575E-1,2.3E1,-1.50498E-1,3.1E1,6.6801615E-2,-1.04689665E-1,2.4262583E0,-1.1903808E-1],"split_indices":[4,4,0,4,6,0,1,0,1,0,0,0,0],"split_type":[0,0,0,0,0,0,0,0,0,0,0,0,0],"sum_hessian":[1.5272728E2,1.4899586E2,3.731405E0,1.2044628E2,2.8549587E1,1.1740909E2,3.0371902E0,2.264876E1,5.9008265E0,1.0413224E0,1.9958677E0,2.7768595E0,3.123967E0],"tree_param":{"num_deleted":"0","num_feature":"7","num_nodes":"13","size_leaf_vector":"1"}},{"base_weights":[1.9515056E-2,-4.8421168E-1,1.4405429E0,-1.5568426E-1,7.870113E-2,1.8178573E-1,7.7297297E0,5.076923E-1,-1.3284346E-1,-1.5127335E-1,2.2060716E0,2.7106273E0,1.9864078E-1,2.2294908E0,-1.3437127E-1],"categories":[],"categories_nodes":[],"categories_segments":[],"categories_sizes":[],"default_left":[0,0,0,0,0,0,0,0,0,0,0,0,0,0,0],"id":5,"left_children":[1,3,5,-1,7,9,11,-1,-1,-1,13,-1,-1,-1,-1],"loss_changes":[1.1073701E2,2.274681E0,3.1908466E2,0E0,7.0677E0,4.9379074E1,5.6097412E1,0E0,0E0,0E0,1.279161E2,0E0,0E0,0E0,0E0],"parents":[2147483647,0,0,1,1,2,2,4,4,5,5,6,6,10,10],"right_children":[2,4,6,-1,8,10,12,-1,-1,-1,14,-1,-1,-1,-1],"split_conditions":[1.2045093E2,1.14282135E2,9.7E1,-1.5568426E-1,7.605522E1,8E1,6.859232E1,5.076923E-1,-1.3284346E-1,-1.5127335E-1,6.8742485E1,2.7106273E0,1.9864078E-1,2.2294908E0,-1.3437127E-1],"split_indices":[6,6,0,0,4,0,4,0,0,0,4,0,0,0,0],"split_type":[0,0,0,0,0,0,0,0,0,0,0,0,0,0,0],"sum_hessian":[1.5272728E2,1.13243805E2,3.948347E1,1.06735535E2,6.5082645E0,3.37562E1,5.727273E0,1.0413224E0,5.4669423E0,2.5772728E1,7.983471E0,4.5991735E0,1.1280992E0,2.0826447E0,5.9008265E0],"tree_param":{"num_deleted":"0","num_feature":"7","num_nodes":"15","size_leaf_vector":"1"}},{"base_weights":[1.9515056E-2,-2.1471518E-1,2.5162904E0,-1.5594956E-1,1.8222545E0,2.4571207E0,-1.4699921E-1],"categories":[],"categories_nodes":[],"categories_segments":[],"categories_sizes":[],"default_left":[0,0,0,0,0,0,0],"id":6,"left_children":[1,3,-1,-1,5,-1,-1],"loss_changes":[3.0311667E2,9.44953E1,0E0,0E0,2.960138E2,0E0,0E0],"parents":[2147483647,0,0,1,1,4,4],"right_children":[2,4,-1,-1,6,-1,-1],"split_conditions":[1.21E2,1E2,2.5162904E0,-1.5594956E-1,2.6E1,2.4571207E0,-1.4699921E-1],"split_indices":[0,0,0,0,2,0,0],"split_type":[0,0,0,0,0,0,0],"sum_hessian":[1.5272728E2,1.4951653E2,3.210744E0,1.3068596E2,1.8830578E1,4.338843E0,1.4491735E1],"tree_param":{"num_deleted":"0","num_feature":"7","num_nodes":"7","size_leaf_vector":"1"}},{"base_weights":[3.9030135E-2,-1.5601707E-1,5.1893587E0,2.9100587E0,-1.366864E-1],"categories":[],"categories_nodes":[],"categories_segments":[],"categories_sizes":[],"default_left":[0,0,0,0,0],"id":7,"left_children":[1,-1,3,-1,-1],"loss_changes":[4.453536E2,0E0,3.9005612E2,0E0,0E0],"parents":[2147483647,0,0,2,2],"right_children":[2,-1,4,-1,-1],"split_conditions":[1.2E2,-1.5601707E-1,8.4134186E1,2.9100587E0,-1.366864E-1],"split_indices":[1,0,4,0,0],"split_type":[0,0,0,0,0],"sum_hessian":[1.5272728E2,1.3858264E2,1.4144629E1,7.46281E0,6.681818E0],"tree_param":{"num_deleted":"0","num_feature":"7","num_nodes":"5","size_leaf_vector":"1"}},{"base_weights":[-1.9515103E-2,-1.5587962E-1,2.0321524E0,-1.4452556E-1,3.5831873E0,6.217391E0,-1.3838185E-1,7.6330433E0,-1.04689665E-1,5.076923E-1,8.1640625E0,6.215534E-1,2.6455774E0],"categories":[],"categories_nodes":[],"categories_segments":[],"categories_sizes":[],"default_left":[0,0,0,0,0,0,0,0,0,0,0,0,0],"id":8,"left_children":[1,-1,3,-1,5,7,-1,9,-1,-1,11,-1,-1],"loss_changes":[1.5878091E2,0E0,1.1998979E2,0E0,2.0397192E2,1.09563934E2,0E0,1.6166016E1,0E0,0E0,1.5474976E1,0E0,0E0],"parents":[2147483647,0,0,2,2,4,4,5,5,7,7,10,10],"right_children":[2,-1,4,-1,6,8,-1,10,-1,-1,12,-1,-1],"split_conditions":[1.4924335E2,-1.5587962E-1,3.5E1,-1.4452556E-1,1.9979364E2,8.9895935E1,-1.3838185E-1,6.043331E0,-1.04689665E-1,5.076923E-1,3.8E1,6.215534E-1,2.6455774E0],"split_indices":[6,0,2,0,6,4,0,5,0,0,1,0,0],"split_type":[0,0,0,0,0,0,0,0,0,0,0,0,0],"sum_hessian":[1.5272728E2,1.233967E2,2.9330578E1,1.1454546E1,1.7876034E1,1.05E1,7.3760333E0,8.504132E0,1.9958677E0,1.0413224E0,7.46281E0,1.1280992E0,6.3347106E0],"tree_param":{"num_deleted":"0","num_feature":"7","num_nodes":"13","size_leaf_vector":"1"}},{"base_weights":[-2.3263787E-8,4.95E0,-1.5602055E-1,2.7879596E0,-1.3621356E-1],"categories":[],"categories_nodes":[],"categories_segments":[],"categories_sizes":[],"default_left":[0,0,0,0,0],"id":9,"left_children":[1,3,-1,-1,-1],"loss_changes":[3.9832043E2,3.49493E2,0E0,0E0,0E0],"parents":[2147483647,0,0,1,1],"right_children":[2,4,-1,-1,-1],"split_conditions":[3.231529E1,5.999969E0,-1.5602055E-1,2.7879596E0,-1.3621356E-1],"split_indices":[4,5,0,0,0],"split_type":[0,0,0,0,0],"sum_hessian":[1.5272728E2,1.3710744E1,1.3901653E2,7.2024794E0,6.5082645E0],"tree_param":{"num_deleted":"0","num_feature":"7","num_nodes":"5","size_leaf_vector":"1"}},{"base_weights":[5.8545213E-2,2.37798E0,-1.5587431E-1,4.5960978E-2,2.6715887E0,-1.4948662E-1,2.6879292E0,1.1971035E0,-8.619403E-2],"categories":[],"categories_nodes":[],"categories_segments":[],"categories_sizes":[],"default_left":[0,0,0,0,0,0,0,0,0],"id":10,"left_children":[1,3,-1,5,-1,-1,7,-1,-1],"loss_changes":[2.0737248E2,4.6920282E2,0E0,3.5468464E1,0E0,0E0,1.746312E1,0E0,0E0],"parents":[2147483647,0,0,1,1,3,3,6,6],"right_children":[2,4,-1,6,-1,-1,8,-1,-1],"split_conditions":[5.521607E1,6E1,-1.5587431E-1,5.5E1,2.6715887E0,-1.4948662E-1,6.934786E1,1.1971035E0,-8.619403E-2],"split_indices":[6,1,0,1,0,0,4,0,0],"split_type":[0,0,0,0,0,0,0,0,0],"sum_hessian":[1.5272728E2,2.985124E1,1.2287604E2,2.2735537E1,7.1157026E0,1.9524794E1,3.210744E0,1.9958677E0,1.214876E0],"tree_param":{"num_deleted":"0","num_feature":"7","num_nodes":"9","size_leaf_vector":"1"}},{"base_weights":[-6.5050498E-3,-1.5549889E-1,8.208496E-1,4.5526247E0,-1.536096E-1,2.7824848E0,-1.387627E-1],"categories":[],"categories_nodes":[],"categories_segments":[],"categories_sizes":[],"default_left":[0,0,0,0,0,0,0],"id":11,"left_children":[1,-1,3,5,-1,-1,-1],"loss_changes":[6.552288E1,0E0,2.9649677E2,3.7529495E2,0E0,0E0,0E0],"parents":[2147483647,0,0,2,2,3,3],"right_children":[2,-1,4,6,-1,-1,-1],"split_conditions":[6E1,-1.5549889E-1,2.6E1,1E2,-1.536096E-1,2.7824848E0,-1.387627E-1],"split_indices":[0,0,2,0,0,0,0],"split_type":[0,0,0,0,0,0,0],"sum_hessian":[1.5272728E2,9.458678E1,5.8140495E1,1.4665289E1,4.347521E1,7.1157026E0,7.549587E0],"tree_param":{"num_deleted":"0","num_feature":"7","num_nodes":"7","size_leaf_vector":"1"}},{"base_weights":[6.505003E-3,1.9779356E0,-1.5585628E-1,7.07981E0,-4.1468644E-1,2.7209373E0,-1.0756193E-1,2.1376519E-1,-1.5002808E-1],"categories":[],"categories_nodes":[],"categories_segments":[],"categories_sizes":[],"default_left":[0,0,0,0,0,0,0,0,0],"id":12,"left_children":[1,3,-1,5,7,-1,-1,-1,-1],"loss_changes":[1.604464E2,4.0071808E2,0E0,1.5806299E2,2.5829778E0,0E0,0E0,0E0,0E0],"parents":[2147483647,0,0,1,1,3,3,4,4],"right_children":[2,4,-1,6,8,-1,-1,-1,-1],"split_conditions":[5.520522E1,3.9E1,-1.5585628E-1,4.1E1,4.4E1,2.7209373E0,-1.0756193E-1,2.1376519E-1,-1.5002808E-1],"split_indices":[4,1,0,0,1,0,0,0,0],"split_type":[0,0,0,0,0,0,0,0,0],"sum_hessian":[1.5272728E2,3.1586777E1,1.21140495E2,9.458677E0,2.21281E1,7.289256E0,2.1694214E0,1.0413224E0,2.1086777E1],"tree_param":{"num_deleted":"0","num_feature":"7","num_nodes":"9","size_leaf_vector":"1"}},{"base_weights":[-2.6020128E-2,-2.25769E-1,5.5681114E0,1.174085E0,-3.0340794E-1,-9.580646E-2,2.4262583E0,3.8219628E-1,-4.9342644E-1,2.1022844E0,-3.4168938E-1,-6.596703E-2,-5.1013905E-1,1.1725888E0,-1.515455E-1,2.1376519E-1,-1.2199631E-1,-2.943373E-1,-1.5565795E-1,6.546559E-1,-8.619403E-2,6.6801615E-2,-1.290775E-1],"categories":[],"categories_nodes":[],"categories_segments":[],"categories_sizes":[],"default_left":[0,0,0,0,0,0,0,0,0,0,0,0,0,0,0,0,0,0,0,0,0,0,0],"id":13,"left_children":[1,3,5,-1,7,-1,-1,9,11,-1,13,15,17,19,-1,-1,-1,21,-1,-1,-1,-1,-1],"loss_changes":[1.7303526E2,4.91975E1,8.177373E1,0E0,1.941313E1,0E0,0E0,1.5868207E2,7.94899E-1,0E0,8.099981E0,1.7518208E0,5.7058334E-2,5.4263263E0,0E0,0E0,0E0,5.6245035E-1,0E0,0E0,0E0,0E0,0E0],"parents":[2147483647,0,0,1,1,2,2,4,4,7,7,8,8,10,10,11,11,12,12,13,13,17,17],"right_children":[2,4,6,-1,8,-1,-1,10,12,-1,14,16,18,20,-1,-1,-1,22,-1,-1,-1,-1,-1],"split_conditions":[7.9946795E0,4.672437E0,2.3982897E1,1.174085E0,5.9212357E1,-9.580646E-2,2.4262583E0,6.1946262E1,6.1623135E1,2.1022844E0,7.1737595E1,4.6E1,6.358337E1,7E1,-1.515455E-1,2.1376519E-1,-1.2199631E-1,3.9E1,-1.5565795E-1,6.546559E-1,-8.619403E-2,6.6801615E-2,-1.290775E-1],"split_indices":[5,5,3,0,4,0,0,6,4,0,6,1,4,1,0,0,0,1,0,0,0,0,0],"split_type":[0,0,0,0,0,0,0,0,0,0,0,0,0,0,0,0,0,0,0,0,0,0,0],"sum_hessian":[1.5272728E2,1.4838843E2,4.338843E0,1.822314E0,1.4656612E2,1.5619835E0,2.7768595E0,3.1586777E1,1.1497934E2,2.2561984E0,2.9330578E1,4.512397E0,1.1046694E2,2.2561984E0,2.707438E1,1.0413224E0,3.4710743E0,5.640496E0,1.0482645E2,1.0413224E0,1.214876E0,1.0413224E0,4.5991735E0],"tree_param":{"num_deleted":"0","num_feature":"7","num_nodes":"23","size_leaf_vector":"1"}},{"base_weights":[6.505003E-3,1.7646444E0,-1.5582347E-1,3.414853E0,-1.4727557E-1,-1.4557348E-1,2.8564153E0],"categories":[],"categories_nodes":[],"categories_segments":[],"categories_sizes":[],"default_left":[0,0,0,0,0,0,0],"id":14,"left_children":[1,3,-1,5,-1,-1,-1],"loss_changes":[1.4305817E2,1.3427417E2,0E0,4.975735E2,0E0,0E0,0E0],"parents":[2147483647,0,0,1,1,3,3],"right_children":[2,4,-1,6,-1,-1,-1],"split_conditions":[6.0951973E1,2.6E1,-1.5582347E-1,6.9961E1,-1.4727557E-1,-1.4557348E-1,2.8564153E0],"split_indices":[6,2,0,4,0,0,0],"split_type":[0,0,0,0,0,0,0],"sum_hessian":[1.5272728E2,3.4623966E1,1.1810331E2,1.9698347E1,1.492562E1,1.2582644E1,7.1157026E0],"tree_param":{"num_deleted":"0","num_feature":"7","num_nodes":"7","size_leaf_vector":"1"}},{"base_weights":[1.9515056E-2,2.8976827E0,-1.560704E-1],"categories":[],"categories_nodes":[],"categories_segments":[],"categories_sizes":[],"default_left":[0,0,0],"id":15,"left_children":[1,-1,-1],"loss_changes":[8.048491E2,0E0,0E0],"parents":[2147483647,0,0],"right_children":[2,-1,-1],"split_conditions":[3.0920141E1,2.8976827E0,-1.560704E-1],"split_indices":[6,0,0],"split_type":[0,0,0],"sum_hessian":[1.5272728E2,7.2024794E0,1.455248E2],"tree_param":{"num_deleted":"0","num_feature":"7","num_nodes":"3","size_leaf_vector":"1"}},{"base_weights":[3.9030135E-2,2.8704143E0,-4.5904174E-1,7.7464783E-1,-1.560261E-1,1.2425101E0,-1.3217334E-1],"categories":[],"categories_nodes":[],"categories_segments":[],"categories_sizes":[],"default_left":[0,0,0,0,0,0,0],"id":16,"left_children":[1,-1,3,5,-1,-1,-1],"loss_changes":[7.3400256E2,0E0,1.1476999E1,3.1836391E1,0E0,0E0,0E0],"parents":[2147483647,0,0,2,2,3,3],"right_children":[2,-1,4,6,-1,-1,-1],"split_conditions":[1.5E1,2.8704143E0,1.6E1,3.8E1,-1.560261E-1,1.2425101E0,-1.3217334E-1],"split_indices":[2,0,2,1,0,0,0],"split_type":[0,0,0,0,0,0,0],"sum_hessian":[1.5272728E2,6.681818E0,1.4604546E2,6.3347106E0,1.3971074E2,1.0413224E0,5.2933884E0],"tree_param":{"num_deleted":"0","num_feature":"7","num_nodes":"7","size_leaf_vector":"1"}},{"base_weights":[-1.9515103E-2,-1.9364172E-1,5.504803E0,-1.557859E-1,8.8351333E-1,-8.8868946E-2,2.3378313E0,-1.507332E-1,3.718584E0,2.671676E0,-1.3596882E-1],"categories":[],"categories_nodes":[],"categories_segments":[],"categories_sizes":[],"default_left":[0,0,0,0,0,0,0,0,0,0,0],"id":17,"left_children":[1,3,5,-1,7,-1,-1,-1,9,-1,-1],"loss_changes":[1.4894096E2,5.3072815E1,6.5106384E1,0E0,1.401403E2,0E0,0E0,0E0,2.566427E2,0E0,0E0],"parents":[2147483647,0,0,1,1,2,2,4,4,8,8],"right_children":[2,4,6,-1,8,-1,-1,-1,10,-1,-1],"split_conditions":[3.6731266E1,9.014362E1,8.282904E1,-1.557859E-1,3.1E1,-8.8868946E-2,2.3378313E0,-1.507332E-1,7.1E1,2.671676E0,-1.3596882E-1],"split_indices":[3,4,4,0,1,0,0,0,1,0,0],"split_type":[0,0,0,0,0,0,0,0,0,0,0],"sum_hessian":[1.5272728E2,1.4899586E2,3.731405E0,1.14805786E2,3.4190083E1,1.3016529E0,2.429752E0,2.351653E1,1.0673553E1,4.252066E0,6.421488E0],"tree_param":{"num_deleted":"0","num_feature":"7","num_nodes":"11","size_leaf_vector":"1"}},{"base_weights":[-1.9515103E-2,1.2546799E0,-4.3367782E-1,-3.7201852E-1,3.572403E0,4.486405E-1,-4.7578678E-1,1.4874792E-1,-4.5371604E-1,1.5843003E0,2.3957295E0,-1.999031E-1,-1.555551E-1,-4.551729E-3,-1.4918377E-1,3.0841122E0,-1.310959E-1,-4.2653656E-1,4.1107264E-1,-1.2393014E-1,2.1333747E0,6.6801615E-2,-1.463973E-1],"categories":[],"categories_nodes":[],"categories_segments":[],"categories_sizes":[],"default_left":[0,0,0,0,0,0,0,0,0,0,0,0,0,0,0,0,0,0,0,0,0,0,0],"id":18,"left_children":[1,3,5,7,9,-1,11,-1,13,15,-1,17,-1,-1,-1,19,-1,21,-1,-1,-1,-1,-1],"loss_changes":[8.166971E1,1.4447334E2,1.0196465E1,1.8709171E0,1.2556021E2,0E0,1.252325E0,0E0,4.077773E-1,3.805201E1,0E0,6.652981E0,0E0,0E0,0E0,1.0257146E2,0E0,7.336557E-1,0E0,0E0,0E0,0E0,0E0],"parents":[2147483647,0,0,1,1,2,2,3,3,4,4,6,6,8,8,9,9,11,11,15,15,17,17],"right_children":[2,4,6,8,10,-1,12,-1,14,16,-1,18,-1,-1,-1,20,-1,22,-1,-1,-1,-1,-1],"split_conditions":[5.964024E1,1.00196175E2,5.4983406E0,4.749104E0,2.7923744E1,4.486405E-1,6.665953E1,1.4874792E-1,1.8E1,3.5E1,2.3957295E0,1.6449704E2,-1.555551E-1,-4.551729E-3,-1.4918377E-1,2.4968817E1,-1.310959E-1,5.9190454E0,4.1107264E-1,-1.2393014E-1,2.1333747E0,6.6801615E-2,-1.463973E-1],"split_indices":[4,6,5,5,3,0,4,0,2,0,0,6,0,0,0,4,0,5,0,0,0,0,0],"split_type":[0,0,0,0,0,0,0,0,0,0,0,0,0,0,0,0,0,0,0,0,0,0,0],"sum_hessian":[1.5272728E2,3.696694E1,1.1576033E2,2.2214876E1,1.4752067E1,1.7355372E0,1.14024796E2,1.4752066E0,2.073967E1,1.1107438E1,3.644628E0,1.6053719E1,9.797108E1,1.9958677E0,1.8743801E1,6.0743804E0,5.0330577E0,1.4665289E1,1.3884298E0,3.731405E0,2.3429751E0,1.0413224E0,1.3623967E1],"tree_param":{"num_deleted":"0","num_feature":"7","num_nodes":"23","size_leaf_vector":"1"}},{"base_weights":[-1.9515103E-2,1.2226774E0,-1.5571868E-1,4.344058E0,-1.5180926E-1,-1.3465406E-1,7.2769227E0,2.8704143E0,-1.0888326E-1],"categories":[],"categories_nodes":[],"categories_segments":[],"categories_sizes":[],"default_left":[0,0,0,0,0,0,0,0,0],"id":19,"left_children":[1,3,-1,5,-1,-1,7,-1,-1],"loss_changes":[9.6027596E1,2.4171625E2,0E0,2.271318E2,0E0,0E0,1.7742657E2,0E0,0E0],"parents":[2147483647,0,0,1,1,3,3,6,6],"right_children":[2,4,-1,6,-1,-1,8,-1,-1],"split_conditions":[3.1E1,2.497256E1,-1.5571868E-1,3.5E1,-1.5180926E-1,-1.3465406E-1,4.1E1,2.8704143E0,-1.0888326E-1],"split_indices":[1,3,0,2,0,0,0,0,0],"split_type":[0,0,0,0,0,0,0,0,0],"sum_hessian":[1.5272728E2,4.338843E1,1.09338844E2,1.492562E1,2.846281E1,5.987603E0,8.938017E0,6.681818E0,2.2561984E0],"tree_param":{"num_deleted":"0","num_feature":"7","num_nodes":"9","size_leaf_vector":"1"}},{"base_weights":[6.505003E-3,-3.638331E-1,7.0946746E0,-1.5598983E-1,1.4764582E0,2.7530136E0,-9.781592E-2,-2.972973E-1,3.209589E0,-1.2950581E-1,6.6801615E-2,4.513863E0,-9.580646E-2,6.6801615E-2,1.7255422E0],"categories":[],"categories_nodes":[],"categories_segments":[],"categories_sizes":[],"default_left":[0,0,0,0,0,0,0,0,0,0,0,0,0,0,0],"id":20,"left_children":[1,3,5,-1,7,-1,-1,9,11,-1,-1,13,-1,-1,-1],"loss_changes":[4.0611832E2,4.3018295E1,1.2167798E2,0E0,3.7107224E1,0E0,0E0,5.6621295E-1,2.920993E1,0E0,0E0,2.2470726E1,0E0,0E0,0E0],"parents":[2147483647,0,0,1,1,2,2,4,4,7,7,8,8,11,11],"right_children":[2,4,6,-1,8,-1,-1,10,12,-1,-1,14,-1,-1,-1],"split_conditions":[2.1800557E2,1.8226881E2,8.497849E1,-1.5598983E-1,3.6E1,2.7530136E0,-9.781592E-2,3.4E1,8.497849E1,-1.2950581E-1,6.6801615E-2,8.018547E1,-9.580646E-2,6.6801615E-2,1.7255422E0],"split_indices":[6,6,4,0,2,0,0,2,4,0,0,4,0,0,0],"split_type":[0,0,0,0,0,0,0,0,0,0,0,0,0,0,0],"sum_hessian":[1.5272728E2,1.4604546E2,6.681818E0,1.3528513E2,1.076033E1,5.0330577E0,1.6487603E0,5.727273E0,5.0330577E0,4.6859503E0,1.0413224E0,3.4710743E0,1.5619835E0,1.0413224E0,2.429752E0],"tree_param":{"num_deleted":"0","num_feature":"7","num_nodes":"15","size_leaf_vector":"1"}},{"base_weights":[6.505003E-3,1.8043426E0,-1.5583017E-1,-1.495825E-1,4.8285403E0,2.888986E0,-1.379849E-1],"categories":[],"categories_nodes":[],"categories_segments":[],"categories_sizes":[],"default_left":[0,0,0,0,0,0,0],"id":21,"left_children":[1,3,-1,-1,5,-1,-1],"loss_changes":[1.462945E2,2.4628293E2,0E0,0E0,3.9118854E2,0E0,0E0],"parents":[2147483647,0,0,1,1,4,4],"right_children":[2,4,-1,-1,6,-1,-1],"split_conditions":[5.9844994E1,6.9E1,-1.5583017E-1,-1.495825E-1,2.7022692E1,2.888986E0,-1.379849E-1],"split_indices":[6,0,0,0,3,0,0],"split_type":[0,0,0,0,0,0,0],"sum_hessian":[1.5272728E2,3.401653E1,1.1871075E2,1.9785124E1,1.4231405E1,7.028926E0,7.2024794E0],"tree_param":{"num_deleted":"0","num_feature":"7","num_nodes":"7","size_leaf_vector":"1"}},{"base_weights":[-4.4446886E-2,-1.5236472E-1,8.4678984E-1,-1.23061866E-1,2.9552883E-1],"categories":[],"categories_nodes":[],"categories_segments":[],"categories_sizes":[],"default_left":[0,0,0,0,0],"id":22,"left_children":[1,-1,3,-1,-1],"loss_changes":[5.2514584E1,0E0,7.9691963E0,0E0,0E0],"parents":[2147483647,0,0,2,2],"right_children":[2,-1,4,-1,-1],"split_conditions":[1.2E2,-1.5236472E-1,8.4134186E1,-1.23061866E-1,2.9552883E-1],"split_indices":[1,0,4,0,0],"split_type":[0,0,0,0,0],"sum_hessian":[1.2510325E2,8.258822E1,4.2515026E1,4.0193377E0,3.849569E1],"tree_param":{"num_deleted":"0","num_feature":"7","num_nodes":"5","size_leaf_vector":"1"}},{"base_weights":[-3.7490908E-2,-1.5204692E-1,5.4009783E-1,-1.4542101E-1,2.9420772E-1],"categories":[],"categories_nodes":[],"categories_segments":[],"categories_sizes":[],"default_left":[0,0,0,0,0],"id":23,"left_children":[1,-1,3,-1,-1],"loss_changes":[3.4711956E1,0E0,2.6409824E1,0E0,0E0],"parents":[2147483647,0,0,2,2],"right_children":[2,-1,4,-1,-1],"split_conditions":[7E1,-1.5204692E-1,6.9E1,-1.4542101E-1,2.9420772E-1],"split_indices":[1,0,0,0,0],"split_type":[0,0,0,0,0],"sum_hessian":[1.2604035E2,6.960436E1,5.6435993E1,1.693787E1,3.9498123E1],"tree_param":{"num_deleted":"0","num_feature":"7","num_nodes":"5","size_leaf_vector":"1"}},{"base_weights":[-1.3529405E-2,3.8099337E-1,-1.5151323E-1,-4.5827073E-1,7.407477E-1,-1.478362E-1,3.647179E-2,9.441412E-1,-1.3947624E-1,-1.15918286E-1,1.0512325E0,-8.183497E-2,3.288561E-1],"categories":[],"categories_nodes":[],"categories_segments":[],"categories_sizes":[],"default_left":[0,0,0,0,0,0,0,0,0,0,0,0,0],"id":24,"left_children":[1,3,-1,5,7,-1,-1,9,-1,-1,11,-1,-1],"loss_changes":[2.4849573E1,2.1808807E1,0E0,4.9927807E-1,1.2738075E1,0E0,0E0,6.5680733E0,0E0,0E0,2.697235E0,0E0,0E0],"parents":[2147483647,0,0,1,1,3,3,4,4,7,7,10,10],"right_children":[2,4,-1,6,8,-1,-1,10,-1,-1,12,-1,-1],"split_conditions":[7.503248E1,6.0951973E1,-1.5151323E-1,3.0996946E1,7.131343E1,-1.478362E-1,3.647179E-2,5.964024E1,-1.3947624E-1,-1.15918286E-1,5.5E1,-8.183497E-2,3.288561E-1],"split_indices":[6,6,0,3,4,0,0,4,0,0,1,0,0],"split_type":[0,0,0,0,0,0,0,0,0,0,0,0,0],"sum_hessian":[1.2615526E2,7.010729E1,5.604797E1,2.0952875E1,4.9154415E1,1.9917383E1,1.0354912E0,4.224474E1,6.909678E0,2.9525993E0,3.929214E1,1.1238607E0,3.8168278E1],"tree_param":{"num_deleted":"0","num_feature":"7","num_nodes":"13","size_leaf_vector":"1"}},{"base_weights":[-4.9937315E-2,9.6125805E-1,-1.5239891E-1,-9.4467945E-2,3.0702826E-1],"categories":[],"categories_nodes":[],"categories_segments":[],"categories_sizes":[],"default_left":[0,0,0,0,0],"id":25,"left_children":[1,3,-1,-1,-1],"loss_changes":[5.808366E1,3.4253273E0,0E0,0E0,0E0],"parents":[2147483647,0,0,1,1],"right_children":[2,4,-1,-1,-1],"split_conditions":[2.0746193E1,2.6E1,-1.5239891E-1,-9.4467945E-2,3.0702826E-1],"split_indices":[4,2,0,0,0],"split_type":[0,0,0,0,0],"sum_hessian":[1.233457E2,3.8112133E1,8.5233574E1,1.5815972E0,3.6530537E1],"tree_param":{"num_deleted":"0","num_feature":"7","num_nodes":"5","size_leaf_vector":"1"}},{"base_weights":[2.2548095E-3,-4.9316671E-1,7.095452E-1,-1.5201753E-1,2.251367E-3,-1.4676057E-1,1.1681402E0,3.7946555E-1,-1.0324603E-1],"categories":[],"categories_nodes":[],"categories_segments":[],"categories_sizes":[],"default_left":[0,0,0,0,0,0,0,0,0],"id":26,"left_children":[1,3,5,-1,-1,-1,7,-1,-1],"loss_changes":[4.326154E1,4.9668503E-1,2.8528316E1,0E0,0E0,0E0,5.860096E0,0E0,0E0],"parents":[2147483647,0,0,1,1,2,2,6,6],"right_children":[2,4,6,-1,-1,-1,8,-1,-1],"split_conditions":[9.073892E1,9.026457E1,1.2934494E2,-1.5201753E-1,2.251367E-3,-1.4676057E-1,3.1E1,3.7946555E-1,-1.0324603E-1],"split_indices":[4,4,6,0,0,0,1,0,0],"split_type":[0,0,0,0,0,0,0,0,0],"sum_hessian":[1.2146225E2,7.1607506E1,4.985474E1,6.97077E1,1.8998038E0,1.3776595E1,3.6078144E1,3.4062675E1,2.015468E0],"tree_param":{"num_deleted":"0","num_feature":"7","num_nodes":"9","size_leaf_vector":"1"}},{"base_weights":[5.503666E-2,-1.5188353E-1,6.612207E-1,1.2850685E0,-1.4711343E-1,-8.132358E-2,4.0128326E-1],"categories":[],"categories_nodes":[],"categories_segments":[],"categories_sizes":[],"default_left":[0,0,0,0,0,0,0],"id":27,"left_children":[1,-1,3,5,-1,-1,-1],"loss_changes":[4.2816017E1,0E0,4.4065414E1,3.591568E0,0E0,0E0,0E0],"parents":[2147483647,0,0,2,2,3,3],"right_children":[2,-1,4,6,-1,-1,-1],"split_conditions":[8E1,-1.5188353E-1,6.9961E1,1.0998255E2,-1.4711343E-1,-8.132358E-2,4.0128326E-1],"split_indices":[0,0,4,6,0,0,0],"split_type":[0,0,0,0,0,0,0],"sum_hessian":[1.238493E2,6.439009E1,5.9459206E1,3.8491547E1,2.0967663E1,1.1213484E0,3.7370197E1],"tree_param":{"num_deleted":"0","num_feature":"7","num_nodes":"7","size_leaf_vector":"1"}},{"base_weights":[4.030086E-2,-1.5222228E-1,8.948349E-1,1.1638871E0,-1.3687715E-1,-1.24423556E-1,3.7041724E-1],"categories":[],"categories_nodes":[],"categories_segments":[],"categories_sizes":[],"default_left":[0,0,0,0,0,0,0],"id":28,"left_children":[1,-1,3,5,-1,-1,-1],"loss_changes":[6.0214756E1,0E0,1.8792034E1,5.2282066E0,0E0,0E0,0E0],"parents":[2147483647,0,0,2,2,3,3],"right_children":[2,-1,4,6,-1,-1,-1],"split_conditions":[1E2,-1.5222228E-1,2.6E1,6.859232E1,-1.3687715E-1,-1.24423556E-1,3.7041724E-1],"split_indices":[0,0,2,4,0,0,0],"split_type":[0,0,0,0,0,0,0],"sum_hessian":[1.2668415E2,7.744955E1,4.92346E1,4.1173912E1,8.060686E0,1.559729E0,3.9614185E1],"tree_param":{"num_deleted":"0","num_feature":"7","num_nodes":"7","size_leaf_vector":"1"}},{"base_weights":[-1.345349E-2,-1.5236472E-1,8.537966E-1,2.9036993E-1,-1.20864324E-1],"categories":[],"categories_nodes":[],"categories_segments":[],"categories_sizes":[],"default_left":[0,0,0,0,0],"id":29,"left_children":[1,-1,3,-1,-1],"loss_changes":[5.6287537E1,0E0,7.225399E0,0E0,0E0],"parents":[2147483647,0,0,2,2],"right_children":[2,-1,4,-1,-1],"split_conditions":[1.2E2,-1.5236472E-1,8.4134186E1,2.9036993E-1,-1.20864324E-1],"split_indices":[1,0,4,0,0],"split_type":[0,0,0,0,0],"sum_hessian":[1.292583E2,8.258822E1,4.667008E1,4.2995953E1,3.674128E0],"tree_param":{"num_deleted":"0","num_feature":"7","num_nodes":"5","size_leaf_vector":"1"}},{"base_weights":[1.8448333E-3,-1.5192977E-1,6.863998E-1,-1.3699798E-1,8.8770396E-1,1.0409082E0,-1.2641907E-1,-1.4333609E-1,1.1115277E0,1.1737806E0,-1.01297945E-1,4.290762E-2,3.614632E-1],"categories":[],"categories_nodes":[],"categories_segments":[],"categories_sizes":[],"default_left":[0,0,0,0,0,0,0,0,0,0,0,0,0],"id":30,"left_children":[1,-1,3,-1,5,7,-1,-1,9,11,-1,-1,-1],"loss_changes":[4.3862114E1,0E0,1.2765257E1,0E0,9.666615E0,4.9796524E0,0E0,0E0,3.9992294E0,1.062191E0,0E0,0E0,0E0],"parents":[2147483647,0,0,2,2,4,4,5,5,8,8,9,9],"right_children":[2,-1,4,-1,6,8,-1,-1,10,12,-1,-1,-1],"split_conditions":[1.4924335E2,-1.5192977E-1,3.5E1,-1.3699798E-1,1.9979364E2,2.2697802E1,-1.2641907E-1,-1.4333609E-1,2.7022692E1,3.6E1,-1.01297945E-1,4.290762E-2,3.614632E-1],"split_indices":[6,0,2,0,6,3,0,0,3,1,0,0,0],"split_type":[0,0,0,0,0,0,0,0,0,0,0,0,0],"sum_hessian":[1.24061874E2,7.134724E1,5.2714634E1,7.703509E0,4.5011124E1,4.047876E1,4.5323668E0,1.5424397E0,3.8936317E1,3.7514835E1,1.4214851E0,1.2626141E0,3.625222E1],"tree_param":{"num_deleted":"0","num_feature":"7","num_nodes":"13","size_leaf_vector":"1"}},{"base_weights":[-2.4207534E-2,8.9089936E-1,-4.926429E-1,3.1005716E-1,-1.2860127E-1,2.6138991E-2,-1.523497E-1],"categories":[],"categories_nodes":[],"categories_segments":[],"categories_sizes":[],"default_left":[0,0,0,0,0,0,0],"id":31,"left_children":[1,3,5,-1,-1,-1,-1],"loss_changes":[5.5499073E1,8.6946945E0,7.9807854E-1,0E0,0E0,0E0,0E0],"parents":[2147483647,0,0,1,1,2,2],"right_children":[2,4,6,-1,-1,-1,-1],"split_conditions":[2.4968817E1,2.6E1,3.231529E1,3.1005716E-1,-1.2860127E-1,2.6138991E-2,-1.523497E-1],"split_indices":[4,2,4,0,0,0,0],"split_type":[0,0,0,0,0,0,0],"sum_hessian":[1.2744467E2,4.2844463E1,8.460021E1,3.886099E1,3.983477E0,2.0389314E0,8.256128E1],"tree_param":{"num_deleted":"0","num_feature":"7","num_nodes":"7","size_leaf_vector":"1"}},{"base_weights":[4.9835443E-2,7.650955E-1,-4.9750814E-1,1.0835252E0,-1.4973943E-1,1.5090593E-2,-1.520848E-1,-1.392598E-1,1.2376494E0,2.0698385E0,3.2794237E-1,1.9654043E-1,6.88299E-1],"categories":[],"categories_nodes":[],"categories_segments":[],"categories_sizes":[],"default_left":[0,0,0,0,0,0,0,0,0,0,0,0,0],"id":32,"left_children":[1,3,5,7,-1,-1,-1,-1,9,11,-1,-1,-1],"loss_changes":[5.175604E1,2.360088E1,4.1312218E-1,1.1564785E1,0E0,0E0,0E0,0E0,2.8090134E0,1.2312508E-1,0E0,0E0,0E0],"parents":[2147483647,0,0,1,1,2,2,3,3,8,8,9,9],"right_children":[2,4,6,8,-1,-1,-1,-1,10,12,-1,-1,-1],"split_conditions":[5.4733677E1,6.9961E1,5.521607E1,5.964024E1,-1.4973943E-1,1.5090593E-2,-1.520848E-1,-1.392598E-1,6E1,6.1623135E1,3.2794237E-1,1.9654043E-1,6.88299E-1],"split_indices":[6,4,6,4,0,0,0,0,1,4,0,0,0],"split_type":[0,0,0,0,0,0,0,0,0,0,0,0,0],"sum_hessian":[1.3022942E2,5.6282494E1,7.394692E1,4.5072662E1,1.1209832E1,1.1795094E0,7.276741E1,3.8997092E0,4.117295E1,4.1205187E0,3.7052433E1,1.1009349E0,3.0195837E0],"tree_param":{"num_deleted":"0","num_feature":"7","num_nodes":"13","size_leaf_vector":"1"}},{"base_weights":[-2.7991489E-2,-1.5150422E-1,3.521881E-1,8.253336E-1,-1.4827639E-1,9.793983E-1,-1.2774123E-1,3.11832E-1,-2.6817208E-3],"categories":[],"categories_nodes":[],"categories_segments":[],"categories_sizes":[],"default_left":[0,0,0,0,0,0,0,0,0],"id":33,"left_children":[1,-1,3,5,-1,7,-1,-1,-1],"loss_changes":[2.3397099E1,0E0,2.9178226E1,9.37141E0,0E0,2.4817085E0,0E0,0E0,0E0],"parents":[2147483647,0,0,2,2,3,3,5,5],"right_children":[2,-1,4,6,-1,8,-1,-1,-1],"split_conditions":[6E1,-1.5150422E-1,2.6E1,1E2,-1.4827639E-1,2.6105513E1,-1.2774123E-1,3.11832E-1,-2.6817208E-3],"split_indices":[0,0,2,0,0,3,0,0,0],"split_type":[0,0,0,0,0,0,0,0,0],"sum_hessian":[1.2703249E2,5.619483E1,7.083766E1,4.5454437E1,2.538323E1,4.0664246E1,4.7901893E0,3.828662E1,2.377625E0],"tree_param":{"num_deleted":"0","num_feature":"7","num_nodes":"9","size_leaf_vector":"1"}},{"base_weights":[-6.6345027E-3,6.17829E-1,-1.5199831E-1,9.531529E-1,-1.4353774E-1,1.0813504E0,-1.6686769E-1,3.3844694E-1,-8.413383E-2],"categories":[],"categories_nodes":[],"categories_segments":[],"categories_sizes":[],"default_left":[0,0,0,0,0,0,0,0,0],"id":34,"left_children":[1,3,-1,5,-1,7,-1,-1,-1],"loss_changes":[4.0549816E1,2.1686115E1,0E0,9.2234955E0,0E0,2.9558678E0,0E0,0E0,0E0],"parents":[2147483647,0,0,1,1,3,3,5,5],"right_children":[2,4,-1,6,-1,8,-1,-1,-1],"split_conditions":[5.520522E1,4.1E1,-1.5199831E-1,6.967843E0,-1.4353774E-1,4.1E1,-1.6686769E-1,3.3844694E-1,-8.413383E-2],"split_indices":[4,1,0,5,0,0,0,0,0],"split_type":[0,0,0,0,0,0,0,0,0],"sum_hessian":[1.27861496E2,5.6751358E1,7.1110146E1,4.3558575E1,1.3192783E1,4.0409973E1,3.1486003E0,3.923307E1,1.1769035E0],"tree_param":{"num_deleted":"0","num_feature":"7","num_nodes":"9","size_leaf_vector":"1"}},{"base_weights":[7.75884E-2,6.942176E-1,-4.894824E-1,1.3754655E0,-1.4806087E-1,5.1177837E-2,-1.5153107E-1,1.6633992E0,-1.296476E-1,1.7644198E0,-9.2484646E-2,6.518936E-1,3.778036E-1],"categories":[],"categories_nodes":[],"categories_segments":[],"categories_sizes":[],"default_left":[0,0,0,0,0,0,0,0,0,0,0,0,0],"id":35,"left_children":[1,3,5,7,-1,-1,-1,9,-1,11,-1,-1,-1],"loss_changes":[4.1627735E1,4.678428E1,7.264519E-1,1.9703117E1,0E0,0E0,0E0,6.851837E0,0E0,3.510704E0,0E0,0E0,0E0],"parents":[2147483647,0,0,1,1,2,2,3,3,7,7,9,9],"right_children":[2,4,6,8,-1,-1,-1,10,-1,12,-1,-1,-1],"split_conditions":[6.358337E1,7.4535576E1,5.513698E0,6.1E1,-1.4806087E-1,5.1177837E-2,-1.5153107E-1,4.1E1,-1.296476E-1,7.9946795E0,-9.2484646E-2,6.518936E-1,3.778036E-1],"split_indices":[4,6,5,1,0,0,0,0,0,5,0,0,0],"split_type":[0,0,0,0,0,0,0,0,0,0,0,0,0],"sum_hessian":[1.1707601E2,5.5979755E1,6.1096256E1,3.54748E1,2.0504957E1,1.18311E0,5.9913143E1,3.0669315E1,4.805483E0,2.9274532E1,1.3947837E0,1.4357967E1,1.4916565E1],"tree_param":{"num_deleted":"0","num_feature":"7","num_nodes":"13","size_leaf_vector":"1"}},{"base_weights":[-2.5722058E-2,5.61988E-1,-1.5201768E-1,-1.4304362E-1,7.689139E-1,-1.245066E-1,8.907335E-1,-1.1628119E-1,2.977482E-1],"categories":[],"categories_nodes":[],"categories_segments":[],"categories_sizes":[],"default_left":[0,0,0,0,0,0,0,0,0],"id":36,"left_children":[1,3,-1,-1,5,-1,7,-1,-1],"loss_changes":[3.6568176E1,1.2885942E1,0E0,0E0,7.429558E0,0E0,6.1995964E0,0E0,0E0],"parents":[2147483647,0,0,1,1,4,4,6,6],"right_children":[2,4,-1,-1,6,-1,8,-1,-1],"split_conditions":[6.0951973E1,2.7061796E1,-1.5201768E-1,-1.4304362E-1,3.5154263E1,-1.245066E-1,6.9961E1,-1.1628119E-1,2.977482E-1],"split_indices":[6,3,0,0,6,0,4,0,0],"split_type":[0,0,0,0,0,0,0,0,0],"sum_hessian":[1.2735023E2,5.7241646E1,7.010858E1,9.291686E0,4.794996E1,4.248912E0,4.3701046E1,3.0151474E0,4.06859E1],"tree_param":{"num_deleted":"0","num_feature":"7","num_nodes":"9","size_leaf_vector":"1"}},{"base_weights":[-2.2270778E-2,2.9306978E-1,-1.5242024E-1],"categories":[],"categories_nodes":[],"categories_segments":[],"categories_sizes":[],"default_left":[0,0,0],"id":37,"left_children":[1,-1,-1],"loss_changes":[6.301111E1,0E0,0E0],"parents":[2147483647,0,0],"right_children":[2,-1,-1],"split_conditions":[3.0920141E1,2.9306978E-1,-1.5242024E-1],"split_indices":[6,0,0],"split_type":[0,0,0],"sum_hessian":[1.27791985E2,4.1475555E1,8.631643E1],"tree_param":{"num_deleted":"0","num_feature":"7","num_nodes":"3","size_leaf_vector":"1"}},{"base_weights":[1.698726E-2,9.7849864E-1,-1.5232557E-1,1.110961E0,-1.2273146E-1,2.9649487E-1,6.588974E-1],"categories":[],"categories_nodes":[],"categories_segments":[],"categories_sizes":[],"default_left":[0,0,0,0,0,0,0],"id":38,"left_children":[1,3,-1,5,-1,-1,-1],"loss_changes":[6.518864E1,8.838001E0,0E0,3.4075317E0,0E0,0E0,0E0],"parents":[2147483647,0,0,1,1,3,3],"right_children":[2,4,-1,6,-1,-1,-1],"split_conditions":[1.6E1,3.1E1,-1.5232557E-1,1.5E1,-1.2273146E-1,2.9649487E-1,6.588974E-1],"split_indices":[2,1,0,2,0,0,0],"split_type":[0,0,0,0,0,0,0],"sum_hessian":[1.27218704E2,4.4610832E1,8.260787E1,4.090533E1,3.7055047E0,3.846897E1,2.436358E0],"tree_param":{"num_deleted":"0","num_feature":"7","num_nodes":"7","size_leaf_vector":"1"}},{"base_weights":[8.641375E-3,-1.5198791E-1,6.500175E-1,-1.4389011E-1,1.0446327E0,3.585788E-1,-1.20863006E-1],"categories":[],"categories_nodes":[],"categories_segments":[],"categories_sizes":[],"default_left":[0,0,0,0,0,0,0],"id":39,"left_children":[1,-1,3,-1,5,-1,-1],"loss_changes":[4.1384743E1,0E0,2.53667E1,0E0,9.563751E0,0E0,0E0],"parents":[2147483647,0,0,2,2,4,4],"right_children":[2,-1,4,-1,6,-1,-1],"split_conditions":[8.9996155E1,-1.5198791E-1,4.1E1,-1.4389011E-1,7.1E1,3.585788E-1,-1.20863006E-1],"split_indices":[4,0,1,0,1,0,0],"split_type":[0,0,0,0,0,0,0],"sum_hessian":[1.2322952E2,6.84491E1,5.478043E1,1.4126249E1,4.065418E1,3.6980225E1,3.6739557E0],"tree_param":{"num_deleted":"0","num_feature":"7","num_nodes":"7","size_leaf_vector":"1"}},{"base_weights":[6.347704E-2,5.7799524E-1,-4.8803344E-1,-4.458795E-1,1.0922462E0,6.2352475E-2,-1.5138239E-1,1.1466648E-2,-1.4663936E-1,-1.459636E-1,1.4744482E0,-1.0936505E-1,1.6280969E0,4.2776522E-1,1.074666E0],"categories":[],"categories_nodes":[],"categories_segments":[],"categories_sizes":[],"default_left":[0,0,0,0,0,0,0,0,0,0,0,0,0,0,0],"id":40,"left_children":[1,3,5,7,9,-1,-1,-1,-1,-1,11,-1,13,-1,-1],"loss_changes":[3.4520847E1,3.3595844E1,7.8281975E-1,4.7023916E-1,2.6150066E1,0E0,0E0,0E0,0E0,0E0,1.0251747E1,0E0,7.4296494E0,0E0,0E0],"parents":[2147483647,0,0,1,1,2,2,3,3,4,4,10,10,12,12],"right_children":[2,4,6,8,10,-1,-1,-1,-1,-1,12,-1,14,-1,-1],"split_conditions":[6.665953E1,9.594035E1,5.4039083E0,4.749104E0,5.5E1,6.2352475E-2,-1.5138239E-1,1.1466648E-2,-1.4663936E-1,-1.459636E-1,2.4968817E1,-1.0936505E-1,6.011681E1,4.2776522E-1,1.074666E0],"split_indices":[4,6,5,5,1,0,0,0,0,0,4,0,4,0,0],"split_type":[0,0,0,0,0,0,0,0,0,0,0,0,0,0,0],"sum_hessian":[1.1966009E2,6.1881363E1,5.7778725E1,2.0733625E1,4.114774E1,1.0757045E0,5.670302E1,1.6973726E0,1.9036253E1,7.9665766E0,3.318116E1,2.452689E0,3.0728472E1,2.9414349E1,1.3141226E0],"tree_param":{"num_deleted":"0","num_feature":"7","num_nodes":"15","size_leaf_vector":"1"}},{"base_weights":[-4.4528317E-2,4.60133E-1,-1.5191019E-1,8.2335055E-1,-1.4526285E-1,-1.2053867E-1,9.4080186E-1,2.9622433E-1,-8.594008E-2],"categories":[],"categories_nodes":[],"categories_segments":[],"categories_sizes":[],"default_left":[0,0,0,0,0,0,0,0,0],"id":41,"left_children":[1,3,-1,5,-1,-1,7,-1,-1],"loss_changes":[2.96543E1,2.1268177E1,0E0,6.754389E0,0E0,0E0,2.6131783E0,0E0,0E0],"parents":[2147483647,0,0,1,1,3,3,6,6],"right_children":[2,4,-1,6,-1,-1,8,-1,-1],"split_conditions":[3.1E1,2.497256E1,-1.5191019E-1,3.5E1,-1.4526285E-1,-1.2053867E-1,4.1E1,2.9622433E-1,-8.594008E-2],"split_indices":[1,3,0,2,0,0,0,0,0],"split_type":[0,0,0,0,0,0,0,0,0],"sum_hessian":[1.2523256E2,5.9843727E1,6.538883E1,4.331271E1,1.653102E1,3.5772383E0,3.973547E1,3.84698E1,1.2656724E0],"tree_param":{"num_deleted":"0","num_feature":"7","num_nodes":"9","size_leaf_vector":"1"}},{"base_weights":[3.3634465E-2,-1.5219118E-1,9.790072E-1,-1.24507464E-1,1.1251216E0,-1.0543557E-1,1.2138464E0,1.5890453E0,3.1176716E-1,1.6731527E0,1.6368257E-1,2.8812987E-1,5.9720993E-1],"categories":[],"categories_nodes":[],"categories_segments":[],"categories_sizes":[],"default_left":[0,0,0,0,0,0,0,0,0,0,0,0,0],"id":42,"left_children":[1,-1,3,-1,5,-1,7,9,-1,11,-1,-1,-1],"loss_changes":[6.436692E1,0E0,9.795208E0,0E0,5.8924904E0,0E0,9.419136E-1,2.4471283E-2,0E0,2.1553612E-1,0E0,0E0,0E0],"parents":[2147483647,0,0,2,2,4,4,6,6,7,7,9,9],"right_children":[2,-1,4,-1,6,-1,8,10,-1,12,-1,-1,-1],"split_conditions":[1.8226881E2,-1.5219118E-1,5.7E1,-1.24507464E-1,7.995151E1,-1.0543557E-1,2.1800557E2,8.4557945E1,3.1176716E-1,1.937462E2,1.6368257E-1,2.8812987E-1,5.9720993E-1],"split_indices":[6,0,0,0,4,0,6,4,0,6,0,0,0],"split_type":[0,0,0,0,0,0,0,0,0,0,0,0,0],"sum_hessian":[1.238958E2,7.909904E1,4.479676E1,4.075288E0,4.0721474E1,2.1403475E0,3.8581123E1,9.680813E0,2.8900312E1,8.400203E0,1.2806094E0,3.8295314E0,4.570672E0],"tree_param":{"num_deleted":"0","num_feature":"7","num_nodes":"13","size_leaf_vector":"1"}},{"base_weights":[-3.083319E-2,5.59502E-1,-1.520246E-1,-1.4273334E-1,8.490034E-1,2.9300377E-1,-1.2227844E-1],"categories":[],"categories_nodes":[],"categories_segments":[],"categories_sizes":[],"default_left":[0,0,0,0,0,0,0],"id":43,"left_children":[1,3,-1,-1,5,-1,-1],"loss_changes":[3.6256714E1,1.767528E1,0E0,0E0,7.6806755E0,0E0,0E0],"parents":[2147483647,0,0,1,1,4,4],"right_children":[2,4,-1,-1,6,-1,-1],"split_conditions":[5.9844994E1,6.9E1,-1.520246E-1,-1.4273334E-1,2.7022692E1,2.9300377E-1,-1.2227844E-1],"split_indices":[6,0,0,0,3,0,0],"split_type":[0,0,0,0,0,0,0],"sum_hessian":[1.27041435E2,5.6625893E1,7.041554E1,1.2233717E1,4.4392174E1,4.0499966E1,3.89221E0],"tree_param":{"num_deleted":"0","num_feature":"7","num_nodes":"7","size_leaf_vector":"1"}},{"base_weights":[-4.3447077E-2,-1.5104525E-1,7.022105E-1,-1.1689119E-1,2.4182318E-1],"categories":[],"categories_nodes":[],"categories_segments":[],"categories_sizes":[],"default_left":[0,0,0,0,0],"id":44,"left_children":[1,-1,3,-1,-1],"loss_changes":[3.6910633E1,0E0,4.972843E0,0E0,0E0],"parents":[2147483647,0,0,2,2],"right_children":[2,-1,4,-1,-1],"split_conditions":[1.2E2,-1.5104525E-1,8.4134186E1,-1.1689119E-1,2.4182318E-1],"split_indices":[1,0,4,0,0],"split_type":[0,0,0,0,0],"sum_hessian":[1.05571075E2,6.549092E1,4.008016E1,3.242601E0,3.683756E1],"tree_param":{"num_deleted":"0","num_feature":"7","num_nodes":"5","size_leaf_vector":"1"}},{"base_weights":[-3.7762795E-2,-1.5064514E-1,4.6368602E-1,-1.4259158E-1,2.4078299E-1],"categories":[],"categories_nodes":[],"categories_segments":[],"categories_sizes":[],"default_left":[0,0,0,0,0],"id":45,"left_children":[1,-1,3,-1,-1],"loss_changes":[2.524056E1,0E0,1.69796E1,0E0,0E0],"parents":[2147483647,0,0,2,2],"right_children":[2,-1,4,-1,-1],"split_conditions":[7E1,-1.5064514E-1,6.9E1,-1.4259158E-1,2.4078299E-1],"split_indices":[1,0,0,0,0],"split_type":[0,0,0,0,0],"sum_hessian":[1.06390755E2,5.523587E1,5.1154884E1,1.3460387E1,3.7694496E1],"tree_param":{"num_deleted":"0","num_feature":"7","num_nodes":"5","size_leaf_vector":"1"}},{"base_weights":[-1.3975867E-2,3.310806E-1,-1.4999016E-1,-1.4411902E-1,6.0576606E-1,-1.3794577E-1,7.69865E-1,8.4066737E-1,-1.0573124E-1,-9.068489E-3,8.730171E-1,8.610608E-2,2.6556647E-1],"categories":[],"categories_nodes":[],"categories_segments":[],"categories_sizes":[],"default_left":[0,0,0,0,0,0,0,0,0,0,0,0,0],"id":46,"left_children":[1,3,-1,-1,5,-1,7,9,-1,-1,11,-1,-1],"loss_changes":[1.8374561E1,1.4579227E1,0E0,0E0,8.8055E0,0E0,3.654068E0,1.1545658E0,0E0,0E0,2.2296906E-2,0E0,0E0],"parents":[2147483647,0,0,1,1,4,4,6,6,7,7,10,10],"right_children":[2,4,-1,-1,6,-1,8,10,-1,-1,12,-1,-1],"split_conditions":[7.503248E1,5.9844994E1,-1.4999016E-1,-1.4411902E-1,2.5010185E1,-1.3794577E-1,7.131343E1,6.011681E1,-1.0573124E-1,-9.068489E-3,6.5022893E0,8.610608E-2,2.6556647E-1],"split_indices":[6,6,0,0,3,0,4,4,0,0,5,0,0],"split_type":[0,0,0,0,0,0,0,0,0,0,0,0,0],"sum_hessian":[1.075846E2,6.3101177E1,4.4483425E1,1.5768599E1,4.733258E1,6.0759544E0,4.1256626E1,3.9044384E1,2.212239E0,1.4007201E0,3.7643665E1,1.2682098E0,3.6375454E1],"tree_param":{"num_deleted":"0","num_feature":"7","num_nodes":"13","size_leaf_vector":"1"}},{"base_weights":[-4.7739968E-2,7.875868E-1,-1.5109313E-1,-8.715095E-2,2.5044337E-1],"categories":[],"categories_nodes":[],"categories_segments":[],"categories_sizes":[],"default_left":[0,0,0,0,0],"id":47,"left_children":[1,3,-1,-1,-1],"loss_changes":[4.03942E1,2.1503391E0,0E0,0E0,0E0],"parents":[2147483647,0,0,1,1],"right_children":[2,4,-1,-1,-1],"split_conditions":[2.0746193E1,2.6E1,-1.5109313E-1,-8.715095E-2,2.5044337E-1],"split_indices":[4,2,0,0,0],"split_type":[0,0,0,0,0],"sum_hessian":[1.0402765E2,3.6472893E1,6.7554756E1,1.3144152E0,3.5158478E1],"tree_param":{"num_deleted":"0","num_feature":"7","num_nodes":"5","size_leaf_vector":"1"}},{"base_weights":[2.1807393E-3,-1.5062708E-1,5.5477405E-1,-1.4426212E-1,9.0092176E-1,2.904928E-1,-9.818375E-2],"categories":[],"categories_nodes":[],"categories_segments":[],"categories_sizes":[],"default_left":[0,0,0,0,0,0,0],"id":48,"left_children":[1,-1,3,-1,5,-1,-1],"loss_changes":[3.0010124E1,0E0,1.8853693E1,0E0,3.5331707E0,0E0,0E0],"parents":[2147483647,0,0,2,2,4,4],"right_children":[2,-1,4,-1,6,-1,-1],"split_conditions":[9.026457E1,-1.5062708E-1,1.2934494E2,-1.4426212E-1,3.1E1,2.904928E-1,-9.818375E-2],"split_indices":[4,0,6,0,1,0,0],"split_type":[0,0,0,0,0,0,0],"sum_hessian":[1.0569606E2,5.5312153E1,5.0383904E1,1.2523955E1,3.7859947E1,3.609133E1,1.7686151E0],"tree_param":{"num_deleted":"0","num_feature":"7","num_nodes":"7","size_leaf_vector":"1"}},{"base_weights":[5.2291505E-2,-1.5043083E-1,5.5325514E-1,9.876427E-1,-1.4459847E-1,7.2012894E-2,3.0357844E-1],"categories":[],"categories_nodes":[],"categories_segments":[],"categories_sizes":[],"default_left":[0,0,0,0,0,0,0],"id":49,"left_children":[1,-1,3,5,-1,-1,-1],"loss_changes":[3.0392212E1,0E0,2.6321161E1,4.980812E-1,0E0,0E0,0E0],"parents":[2147483647,0,0,2,2,3,3],"right_children":[2,-1,4,6,-1,-1,-1],"split_conditions":[8E1,-1.5043083E-1,6.9961E1,2.310694E1,-1.4459847E-1,7.2012894E-2,3.0357844E-1],"split_indices":[0,0,4,3,0,0,0],"split_type":[0,0,0,0,0,0,0],"sum_hessian":[1.0756192E2,5.1089966E1,5.6471954E1,3.981267E1,1.6659285E1,1.5950495E0,3.821762E1],"tree_param":{"num_deleted":"0","num_feature":"7","num_nodes":"7","size_leaf_vector":"1"}},{"base_weights":[3.550152E-2,-1.5088199E-1,7.0669395E-1,8.8507056E-1,-1.3238014E-1,-1.10147454E-1,2.8016716E-1],"categories":[],"categories_nodes":[],"categories_segments":[],"categories_sizes":[],"default_left":[0,0,0,0,0,0,0],"id":50,"left_children":[1,-1,3,5,-1,-1,-1],"loss_changes":[4.0655582E1,0E0,1.0639835E1,3.0116196E0,0E0,0E0,0E0],"parents":[2147483647,0,0,2,2,3,3],"right_children":[2,-1,4,6,-1,-1,-1],"split_conditions":[1E2,-1.5088199E-1,2.6E1,6.859232E1,-1.3238014E-1,-1.10147454E-1,2.8016716E-1],"split_indices":[0,0,2,4,0,0,0],"split_type":[0,0,0,0,0,0,0],"sum_hessian":[1.105119E2,6.145909E1,4.9052807E1,4.2653996E1,6.3988113E0,1.3558506E0,4.1298145E1],"tree_param":{"num_deleted":"0","num_feature":"7","num_nodes":"7","size_leaf_vector":"1"}},{"base_weights":[-1.5393799E-2,-1.5104525E-1,7.0965546E-1,2.3890656E-1,-1.1448916E-1],"categories":[],"categories_nodes":[],"categories_segments":[],"categories_sizes":[],"default_left":[0,0,0,0,0],"id":51,"left_children":[1,-1,3,-1,-1],"loss_changes":[3.9381638E1,0E0,4.5408974E0,0E0,0E0],"parents":[2147483647,0,0,2,2],"right_children":[2,-1,4,-1,-1],"split_conditions":[1.2E2,-1.5104525E-1,8.4134186E1,2.3890656E-1,-1.1448916E-1],"split_indices":[1,0,4,0,0],"split_type":[0,0,0,0,0],"sum_hessian":[1.0927265E2,6.549092E1,4.3781734E1,4.0809772E1,2.9719653E0],"tree_param":{"num_deleted":"0","num_feature":"7","num_nodes":"5","size_leaf_vector":"1"}},{"base_weights":[4.033072E-3,-1.5054277E-1,5.5970365E-1,-1.3260107E-1,7.047617E-1,8.103232E-1,-1.2066613E-1,-1.3325384E-1,8.659302E-1,9.0957636E-1,-9.237683E-2,-8.4266715E-2,2.8454253E-1],"categories":[],"categories_nodes":[],"categories_segments":[],"categories_sizes":[],"default_left":[0,0,0,0,0,0,0,0,0,0,0,0,0],"id":52,"left_children":[1,-1,3,-1,5,7,-1,-1,9,11,-1,-1,-1],"loss_changes":[3.083246E1,0E0,7.9063625E0,0E0,5.706154E0,3.340004E0,0E0,0E0,2.3758793E0,2.1044884E0,0E0,0E0,0E0],"parents":[2147483647,0,0,2,2,4,4,5,5,8,8,9,9],"right_children":[2,-1,4,-1,6,8,-1,-1,10,12,-1,-1,-1],"split_conditions":[1.4924335E2,-1.5054277E-1,3.5E1,-1.3260107E-1,1.9979364E2,2.2697802E1,-1.2066613E-1,-1.3325384E-1,2.7022692E1,5.955743E0,-9.237683E-2,-8.4266715E-2,2.8454253E-1],"split_indices":[6,0,2,0,6,3,0,0,3,5,0,0,0],"split_type":[0,0,0,0,0,0,0,0,0,0,0,0,0],"sum_hessian":[1.07692955E2,5.6424816E1,5.1268135E1,6.226129E0,4.5042007E1,4.1365402E1,3.6766045E0,1.4591408E0,3.990626E1,3.8692726E1,1.2135351E0,1.0274482E0,3.766528E1],"tree_param":{"num_deleted":"0","num_feature":"7","num_nodes":"13","size_leaf_vector":"1"}},{"base_weights":[-2.3748083E-2,6.9964105E-1,-1.5103026E-1,7.9714847E-1,-1.214218E-1,2.507777E-1,-1.10685125E-1],"categories":[],"categories_nodes":[],"categories_segments":[],"categories_sizes":[],"default_left":[0,0,0,0,0,0,0],"id":53,"left_children":[1,3,-1,5,-1,-1,-1],"loss_changes":[3.8362133E1,5.0708427E0,0E0,2.1557007E0,0E0,0E0,0E0],"parents":[2147483647,0,0,1,1,3,3],"right_children":[2,4,-1,6,-1,-1,-1],"split_conditions":[3.231529E1,2.6E1,-1.5103026E-1,2.497256E1,-1.214218E-1,2.507777E-1,-1.10685125E-1],"split_indices":[4,2,0,3,0,0,0],"split_type":[0,0,0,0,0,0,0],"sum_hessian":[1.08538734E2,4.3093372E1,6.544536E1,3.9852894E1,3.2404785E0,3.884432E1,1.0085744E0],"tree_param":{"num_deleted":"0","num_feature":"7","num_nodes":"7","size_leaf_vector":"1"}},{"base_weights":[4.791948E-2,6.102837E-1,-1.5071492E-1,8.414338E-1,-1.4753425E-1,-1.3157628E-1,9.453503E-1,1.6264468E-2,9.660087E-1,4.2031696E-1,2.5959182E-1],"categories":[],"categories_nodes":[],"categories_segments":[],"categories_sizes":[],"default_left":[0,0,0,0,0,0,0,0,0,0,0],"id":54,"left_children":[1,3,-1,5,-1,-1,7,-1,9,-1,-1],"loss_changes":[3.591805E1,1.5026817E1,0E0,6.771038E0,0E0,0E0,7.6713943E-1,0E0,6.9112396E-1,0E0,0E0],"parents":[2147483647,0,0,1,1,3,3,6,6,8,8],"right_children":[2,4,-1,6,-1,-1,8,-1,10,-1,-1],"split_conditions":[5.521607E1,6.9961E1,-1.5071492E-1,5.964024E1,-1.4753425E-1,-1.3157628E-1,3.5154263E1,1.6264468E-2,6E1,4.2031696E-1,2.5959182E-1],"split_indices":[6,4,0,4,0,0,6,0,1,0,0],"split_type":[0,0,0,0,0,0,0,0,0,0,0],"sum_hessian":[1.1407222E2,5.636391E1,5.770831E1,4.6787136E1,9.576775E0,3.2713044E0,4.3515835E1,1.0680509E0,4.2447784E1,5.5515594E0,3.6896225E1],"tree_param":{"num_deleted":"0","num_feature":"7","num_nodes":"11","size_leaf_vector":"1"}},{"base_weights":[-2.7461031E-2,-1.4997499E-1,3.053627E-1,6.7522883E-1,-1.4607775E-1,7.883128E-1,-1.2204976E-1,2.5124866E-1,-3.6832057E-3],"categories":[],"categories_nodes":[],"categories_segments":[],"categories_sizes":[],"default_left":[0,0,0,0,0,0,0,0,0],"id":55,"left_children":[1,-1,3,5,-1,7,-1,-1,-1],"loss_changes":[1.7347204E1,0E0,1.9310707E1,5.7755966E0,0E0,1.612915E0,0E0,0E0,0E0],"parents":[2147483647,0,0,2,2,3,3,5,5],"right_children":[2,-1,4,6,-1,8,-1,-1,-1],"split_conditions":[6E1,-1.4997499E-1,2.6E1,1E2,-1.4607775E-1,2.6105513E1,-1.2204976E-1,2.5124866E-1,-3.6832057E-3],"split_indices":[0,0,2,0,0,3,0,0,0],"split_type":[0,0,0,0,0,0,0,0,0],"sum_hessian":[1.0834917E2,4.4573456E1,6.377571E1,4.3579247E1,2.0196466E1,3.9701588E1,3.8776567E0,3.7360332E1,2.3412552E0],"tree_param":{"num_deleted":"0","num_feature":"7","num_nodes":"9","size_leaf_vector":"1"}},{"base_weights":[-8.030052E-3,5.1392305E-1,-1.5061405E-1,7.612371E-1,-1.4025156E-1,8.5891265E-1,-1.5176243E-1,2.6818618E-1,-7.827815E-2],"categories":[],"categories_nodes":[],"categories_segments":[],"categories_sizes":[],"default_left":[0,0,0,0,0,0,0,0,0],"id":56,"left_children":[1,3,-1,5,-1,7,-1,-1,-1],"loss_changes":[2.8790373E1,1.3535506E1,0E0,5.849369E0,0E0,1.8417416E0,0E0,0E0,0E0],"parents":[2147483647,0,0,1,1,3,3,5,5],"right_children":[2,4,-1,6,-1,8,-1,-1,-1],"split_conditions":[5.520522E1,4.1E1,-1.5061405E-1,6.967843E0,-1.4025156E-1,4.1E1,-1.5176243E-1,2.6818618E-1,-7.827815E-2],"split_indices":[4,1,0,5,0,0,0,0,0],"split_type":[0,0,0,0,0,0,0,0,0],"sum_hessian":[1.0965333E2,5.329949E1,5.635384E1,4.2750885E1,1.0548607E1,3.9990368E1,2.7605155E0,3.897258E1,1.0177895E0],"tree_param":{"num_deleted":"0","num_feature":"7","num_nodes":"9","size_leaf_vector":"1"}},{"base_weights":[7.281925E-2,5.362115E-1,-1.5005192E-1,9.4355667E-1,-1.4540502E-1,1.1238148E0,-1.2777421E-1,-9.648651E-2,1.19306E0,4.30393E-1,1.0051937E0,3.138949E-1,7.8730285E-2],"categories":[],"categories_nodes":[],"categories_segments":[],"categories_sizes":[],"default_left":[0,0,0,0,0,0,0,0,0,0,0,0,0],"id":57,"left_children":[1,3,-1,5,-1,7,-1,-1,9,-1,11,-1,-1],"loss_changes":[2.8475061E1,2.5082697E1,0E0,1.1011223E1,0E0,4.1849747E0,0E0,0E0,2.1241379E-1,0E0,4.538269E-1,0E0,0E0],"parents":[2147483647,0,0,1,1,3,3,5,5,8,8,10,10],"right_children":[2,4,-1,6,-1,8,-1,-1,10,-1,12,-1,-1],"split_conditions":[6.510343E1,7.4535576E1,-1.5005192E-1,6.1E1,-1.4540502E-1,2.3579435E1,-1.2777421E-1,-9.648651E-2,6.3004794E0,4.30393E-1,6.188871E1,3.138949E-1,7.8730285E-2],"split_indices":[4,6,0,1,0,3,0,0,5,0,4,0,0],"split_type":[0,0,0,0,0,0,0,0,0,0,0,0,0],"sum_hessian":[1.0523246E2,5.821601E1,4.7016453E1,4.16665E1,1.6549511E1,3.697854E1,4.6879606E0,1.523894E0,3.5454643E1,1.2606743E1,2.28479E1,2.1262047E1,1.5858542E0],"tree_param":{"num_deleted":"0","num_feature":"7","num_nodes":"13","size_leaf_vector":"1"}},{"base_weights":[-2.7356999E-2,4.7485575E-1,-1.5063179E-1,-1.3858183E-1,6.363698E-1,-1.18466794E-1,7.2834104E-1,-1.09870955E-1,2.4157016E-1],"categories":[],"categories_nodes":[],"categories_segments":[],"categories_sizes":[],"default_left":[0,0,0,0,0,0,0,0,0],"id":58,"left_children":[1,3,-1,-1,5,-1,7,-1,-1],"loss_changes":[2.627851E1,8.402035E0,0E0,0E0,4.662634E0,0E0,3.888937E0,0E0,0E0],"parents":[2147483647,0,0,1,1,4,4,6,6],"right_children":[2,4,-1,-1,6,-1,8,-1,-1],"split_conditions":[6.0951973E1,2.7061796E1,-1.5063179E-1,-1.3858183E-1,3.5154263E1,-1.18466794E-1,6.9961E1,-1.09870955E-1,2.4157016E-1],"split_indices":[6,3,0,0,6,0,4,0,0],"split_type":[0,0,0,0,0,0,0,0,0],"sum_hessian":[1.08217094E2,5.2587368E1,5.5629726E1,7.459807E0,4.512756E1,3.4254045E0,4.1702156E1,2.4902487E0,3.9211906E1],"tree_param":{"num_deleted":"0","num_feature":"7","num_nodes":"9","size_leaf_vector":"1"}},{"base_weights":[-2.2392185E-2,2.4072841E-1,-1.5112087E-1],"categories":[],"categories_nodes":[],"categories_segments":[],"categories_sizes":[],"default_left":[0,0,0],"id":59,"left_children":[1,-1,-1],"loss_changes":[4.3659237E1,0E0,0E0],"parents":[2147483647,0,0],"right_children":[2,-1,-1],"split_conditions":[3.0920141E1,2.4072841E-1,-1.5112087E-1],"split_indices":[6,0,0],"split_type":[0,0,0],"sum_hessian":[1.07948616E2,3.9535103E1,6.841351E1],"tree_param":{"num_deleted":"0","num_feature":"7","num_nodes":"3","size_leaf_vector":"1"}},{"base_weights":[1.6567089E-2,7.8984404E-1,-1.5100822E-1,8.8482547E-1,-1.1632961E-1,2.4223675E-1,3.932728E-1],"categories":[],"categories_nodes":[],"categories_segments":[],"categories_sizes":[],"default_left":[0,0,0,0,0,0,0],"id":60,"left_children":[1,3,-1,5,-1,-1,-1],"loss_changes":[4.4662865E1,5.3377266E0,0E0,3.137474E-1,0E0,0E0,0E0],"parents":[2147483647,0,0,1,1,3,3],"right_children":[2,4,-1,6,-1,-1,-1],"split_conditions":[1.6E1,3.1E1,-1.5100822E-1,1.5E1,-1.1632961E-1,2.4223675E-1,3.932728E-1],"split_indices":[2,1,0,2,0,0,0],"split_type":[0,0,0,0,0,0,0],"sum_hessian":[1.0909947E2,4.3654285E1,6.544519E1,4.0626163E1,3.028123E0,3.6832973E1,3.7931893E0],"tree_param":{"num_deleted":"0","num_feature":"7","num_nodes":"7","size_leaf_vector":"1"}},{"base_weights":[8.065565E-3,-1.5058768E-1,5.379311E-1,-1.4073218E-1,8.191068E-1,2.7610883E-1,-1.14487745E-1],"categories":[],"categories_nodes":[],"categories_segments":[],"categories_sizes":[],"default_left":[0,0,0,0,0,0,0],"id":61,"left_children":[1,-1,3,-1,5,-1,-1],"loss_changes":[2.9338171E1,0E0,1.5458782E1,0E0,5.4554443E0,0E0,0E0],"parents":[2147483647,0,0,2,2,4,4],"right_children":[2,-1,4,-1,6,-1,-1],"split_conditions":[8.9996155E1,-1.5058768E-1,4.1E1,-1.4073218E-1,7.1E1,2.7610883E-1,-1.14487745E-1],"split_indices":[4,0,1,0,1,0,0],"split_type":[0,0,0,0,0,0,0],"sum_hessian":[1.0656246E2,5.432467E1,5.2237797E1,1.1255947E1,4.098185E1,3.801002E1,2.9718277E0],"tree_param":{"num_deleted":"0","num_feature":"7","num_nodes":"7","size_leaf_vector":"1"}},{"base_weights":[6.2277928E-2,4.7213146E-1,-4.7899958E-1,-4.284191E-1,8.1786287E-1,6.17593E-2,-1.4987396E-1,1.2139839E-2,-1.439663E-1,-1.3988401E-1,1.0433563E0,-1.02287985E-1,1.1285509E0,3.0835378E-1,4.9900347E-1],"categories":[],"categories_nodes":[],"categories_segments":[],"categories_sizes":[],"default_left":[0,0,0,0,0,0,0,0,0,0,0,0,0,0,0],"id":62,"left_children":[1,3,5,7,9,-1,-1,-1,-1,-1,11,-1,13,-1,-1],"loss_changes":[2.4162004E1,1.96245E1,7.651453E-1,4.496932E-1,1.3538918E1,0E0,0E0,0E0,0E0,0E0,4.9432335E0,0E0,2.6379776E-1,0E0,0E0],"parents":[2147483647,0,0,1,1,2,2,3,3,4,4,10,10,12,12],"right_children":[2,4,6,8,10,-1,-1,-1,-1,-1,12,-1,14,-1,-1],"split_conditions":[6.665953E1,9.594035E1,5.4039083E0,4.749104E0,5.5E1,6.17593E-2,-1.4987396E-1,1.2139839E-2,-1.439663E-1,-1.3988401E-1,2.4968817E1,-1.02287985E-1,6.011681E1,3.0835378E-1,4.9900347E-1],"split_indices":[4,6,5,5,1,0,0,0,0,0,4,0,4,0,0],"split_type":[0,0,0,0,0,0,0,0,0,0,0,0,0,0,0],"sum_hessian":[1.0689474E2,6.0905243E1,4.59895E1,1.6829391E1,4.4075848E1,1.0790241E0,4.4910477E1,1.6857508E0,1.51436405E1,6.424082E0,3.7651768E1,2.0088058E0,3.5642963E1,3.245368E1,3.1892831E0],"tree_param":{"num_deleted":"0","num_feature":"7","num_nodes":"15","size_leaf_vector":"1"}},{"base_weights":[-4.497853E-2,3.965642E-1,-1.504878E-1,6.810554E-1,-1.4232981E-1,-1.1422725E-1,7.7043736E-1,2.4187706E-1,-7.8714594E-2],"categories":[],"categories_nodes":[],"categories_segments":[],"categories_sizes":[],"default_left":[0,0,0,0,0,0,0,0,0],"id":63,"left_children":[1,3,-1,5,-1,-1,7,-1,-1],"loss_changes":[2.1739962E1,1.3920453E1,0E0,4.2580185E0,0E0,0E0,1.6492329E0,0E0,0E0],"parents":[2147483647,0,0,1,1,3,3,6,6],"right_children":[2,4,-1,6,-1,-1,8,-1,-1],"split_conditions":[3.1E1,2.497256E1,-1.504878E-1,3.5E1,-1.4232981E-1,-1.1422725E-1,4.1E1,2.4187706E-1,-7.8714594E-2],"split_indices":[1,3,0,2,0,0,0,0,0],"split_type":[0,0,0,0,0,0,0,0,0],"sum_hessian":[1.0583484E2,5.3874218E1,5.1960625E1,4.0774296E1,1.3099921E1,2.9127214E0,3.7861576E1,3.6804512E1,1.0570639E0],"tree_param":{"num_deleted":"0","num_feature":"7","num_nodes":"9","size_leaf_vector":"1"}},{"base_weights":[3.764673E-2,-1.5085554E-1,7.7321047E-1,-1.1890387E-1,8.732907E-1,-9.755168E-2,9.311159E-1,2.8466764E-1,8.9431524E-2],"categories":[],"categories_nodes":[],"categories_segments":[],"categories_sizes":[],"default_left":[0,0,0,0,0,0,0,0,0],"id":64,"left_children":[1,-1,3,-1,5,-1,7,-1,-1],"loss_changes":[4.3842316E1,0E0,5.8110332E0,0E0,3.304966E0,0E0,1.8507004E-1,0E0,0E0],"parents":[2147483647,0,0,2,2,4,4,6,6],"right_children":[2,-1,4,-1,6,-1,8,-1,-1],"split_conditions":[1.8226881E2,-1.5085554E-1,5.7E1,-1.1890387E-1,7.995151E1,-9.755168E-2,8.485936E1,2.8466764E-1,8.9431524E-2],"split_indices":[6,0,0,0,4,0,4,0,0],"split_type":[0,0,0,0,0,0,0,0,0],"sum_hessian":[1.0829744E2,6.260853E1,4.5688908E1,3.3681202E0,4.232079E1,1.7351602E0,4.058563E1,3.8991653E1,1.5939757E0],"tree_param":{"num_deleted":"0","num_feature":"7","num_nodes":"9","size_leaf_vector":"1"}},{"base_weights":[-3.1759083E-2,4.7836065E-1,-1.506416E-1,-1.3925885E-1,7.0478255E-1,2.4032676E-1,-1.16002746E-1],"categories":[],"categories_nodes":[],"categories_segments":[],"categories_sizes":[],"default_left":[0,0,0,0,0,0,0],"id":65,"left_children":[1,3,-1,-1,5,-1,-1],"loss_changes":[2.6248093E1,1.1533608E1,0E0,0E0,4.801977E0,0E0,0E0],"parents":[2147483647,0,0,1,1,4,4],"right_children":[2,4,-1,-1,6,-1,-1],"split_conditions":[5.9844994E1,6.9E1,-1.506416E-1,-1.3925885E-1,2.7022692E1,2.4032676E-1,-1.16002746E-1],"split_indices":[6,0,0,0,3,0,0],"split_type":[0,0,0,0,0,0,0],"sum_hessian":[1.0738883E2,5.1510014E1,5.5878822E1,9.773677E0,4.1736336E1,3.859673E1,3.1396081E0],"tree_param":{"num_deleted":"0","num_feature":"7","num_nodes":"7","size_leaf_vector":"1"}},{"base_weights":[-4.3385044E-2,-1.4976493E-1,6.146907E-1,-1.10067E-1,2.103325E-1],"categories":[],"categories_nodes":[],"categories_segments":[],"categories_sizes":[],"default_left":[0,0,0,0,0],"id":66,"left_children":[1,-1,3,-1,-1],"loss_changes":[2.6677155E1,0E0,3.346777E0,0E0,0E0],"parents":[2147483647,0,0,2,2],"right_children":[2,-1,4,-1,-1],"split_conditions":[1.2E2,-1.4976493E-1,8.4134186E1,-1.10067E-1,2.103325E-1],"split_indices":[1,0,4,0,0],"split_type":[0,0,0,0,0],"sum_hessian":[8.6909294E1,5.1487022E1,3.5422276E1,2.6035933E0,3.281868E1],"tree_param":{"num_deleted":"0","num_feature":"7","num_nodes":"5","size_leaf_vector":"1"}},{"base_weights":[-3.887606E-2,-1.4925778E-1,4.1391987E-1,-1.3942404E-1,2.0950393E-1],"categories":[],"categories_nodes":[],"categories_segments":[],"categories_sizes":[],"default_left":[0,0,0,0,0],"id":67,"left_children":[1,-1,3,-1,-1],"loss_changes":[1.8597286E1,0E0,1.1598137E1,0E0,0E0],"parents":[2147483647,0,0,2,2],"right_children":[2,-1,4,-1,-1],"split_conditions":[7E1,-1.4925778E-1,6.9E1,-1.3942404E-1,2.0950393E-1],"split_indices":[1,0,0,0,0],"split_type":[0,0,0,0,0],"sum_hessian":[8.755841E1,4.3448948E1,4.4109463E1,1.0631636E1,3.347783E1],"tree_param":{"num_deleted":"0","num_feature":"7","num_nodes":"5","size_leaf_vector":"1"}},{"base_weights":[-1.3640625E-2,2.9857728E-1,-1.4844789E-1,-1.411841E-1,5.308299E-1,-1.3209239E-1,6.666133E-1,-9.9380784E-2,7.260249E-1,2.2707154E-1,-1.8838245E-2],"categories":[],"categories_nodes":[],"categories_segments":[],"categories_sizes":[],"default_left":[0,0,0,0,0,0,0,0,0,0,0],"id":68,"left_children":[1,3,-1,-1,5,-1,7,-1,9,-1,-1],"loss_changes":[1.3748813E1,1.0170034E1,0E0,0E0,5.9796925E0,0E0,2.506981E0,0E0,9.3406296E-1,0E0,0E0],"parents":[2147483647,0,0,1,1,4,4,6,6,8,8],"right_children":[2,4,-1,-1,6,-1,8,-1,10,-1,-1],"split_conditions":[7.503248E1,5.9844994E1,-1.4844789E-1,-1.411841E-1,2.5010185E1,-1.3209239E-1,6.4460917E0,-9.9380784E-2,7.762648E0,2.2707154E-1,-1.8838245E-2],"split_indices":[6,6,0,0,3,0,5,0,5,0,0],"split_type":[0,0,0,0,0,0,0,0,0,0,0],"sum_hessian":[8.953209E1,5.452984E1,3.5002254E1,1.2408425E1,4.2121414E1,4.8918233E0,3.722959E1,1.8348839E0,3.5394707E1,3.410023E1,1.2944754E0],"tree_param":{"num_deleted":"0","num_feature":"7","num_nodes":"11","size_leaf_vector":"1"}},{"base_weights":[-4.651235E-2,6.8626016E-1,-1.4982916E-1,-7.9647295E-2,2.1792583E-1],"categories":[],"categories_nodes":[],"categories_segments":[],"categories_sizes":[],"default_left":[0,0,0,0,0],"id":69,"left_children":[1,3,-1,-1,-1],"loss_changes":[2.9073797E1,1.4728794E0,0E0,0E0,0E0],"parents":[2147483647,0,0,1,1],"right_children":[2,4,-1,-1,-1],"split_conditions":[2.0746193E1,2.6E1,-1.4982916E-1,-7.9647295E-2,2.1792583E-1],"split_indices":[4,2,0,0,0],"split_type":[0,0,0,0,0],"sum_hessian":[8.556905E1,3.2489452E1,5.3079605E1,1.0882235E0,3.1401228E1],"tree_param":{"num_deleted":"0","num_feature":"7","num_nodes":"5","size_leaf_vector":"1"}},{"base_weights":[2.032839E-3,-1.492536E-1,4.8130447E-1,-1.4045835E-1,7.5144595E-1,2.41119E-1,-9.064129E-2],"categories":[],"categories_nodes":[],"categories_segments":[],"categories_sizes":[],"default_left":[0,0,0,0,0,0,0],"id":70,"left_children":[1,-1,3,-1,5,-1,-1],"loss_changes":[2.177122E1,0E0,1.2255067E1,0E0,2.2541084E0,0E0,0E0],"parents":[2147483647,0,0,2,2,4,4],"right_children":[2,-1,4,-1,6,-1,-1],"split_conditions":[9.026457E1,-1.492536E-1,1.2934494E2,-1.4045835E-1,3.1E1,2.41119E-1,-9.064129E-2],"split_indices":[4,0,6,0,1,0,0],"split_type":[0,0,0,0,0,0,0],"sum_hessian":[8.89339E1,4.3527313E1,4.540658E1,9.89484E0,3.551174E1,3.4058723E1,1.4530163E0],"tree_param":{"num_deleted":"0","num_feature":"7","num_nodes":"7","size_leaf_vector":"1"}},{"base_weights":[5.29643E-2,-1.48979E-1,4.9044433E-1,8.314496E-1,-1.418074E-1,3.9045192E-2,2.5575006E-1],"categories":[],"categories_nodes":[],"categories_segments":[],"categories_sizes":[],"default_left":[0,0,0,0,0,0,0],"id":71,"left_children":[1,-1,3,5,-1,-1,-1],"loss_changes":[2.2311792E1,0E0,1.7343315E1,4.570713E-1,0E0,0E0,0E0],"parents":[2147483647,0,0,2,2,3,3],"right_children":[2,-1,4,6,-1,-1,-1],"split_conditions":[8E1,-1.48979E-1,6.9961E1,1.1517814E2,-1.418074E-1,3.9045192E-2,2.5575006E-1],"split_indices":[0,0,4,6,0,0,0],"split_type":[0,0,0,0,0,0,0],"sum_hessian":[9.078962E1,4.018023E1,5.0609394E1,3.7477085E1,1.3132311E1,1.3014678E0,3.6175617E1],"tree_param":{"num_deleted":"0","num_feature":"7","num_nodes":"7","size_leaf_vector":"1"}},{"base_weights":[3.1843513E-2,-1.4956905E-1,6.013237E-1,7.389425E-1,-1.2732142E-1,-9.767936E-2,2.3347214E-1],"categories":[],"categories_nodes":[],"categories_segments":[],"categories_sizes":[],"default_left":[0,0,0,0,0,0,0],"id":72,"left_children":[1,-1,3,5,-1,-1,-1],"loss_changes":[2.8764662E1,0E0,6.792536E0,1.9616184E0,0E0,0E0,0E0],"parents":[2147483647,0,0,2,2,3,3],"right_children":[2,-1,4,6,-1,-1,-1],"split_conditions":[1E2,-1.4956905E-1,2.6E1,6.859232E1,-1.2732142E-1,-9.767936E-2,2.3347214E-1],"split_indices":[0,0,2,4,0,0,0],"split_type":[0,0,0,0,0,0,0],"sum_hessian":[9.3236946E1,4.8339058E1,4.489789E1,3.9833187E1,5.064702E0,1.1587403E0,3.8674446E1],"tree_param":{"num_deleted":"0","num_feature":"7","num_nodes":"7","size_leaf_vector":"1"}},{"base_weights":[-1.7405901E-2,-1.4976493E-1,6.2257856E-1,2.0863655E-1,-1.075087E-1],"categories":[],"categories_nodes":[],"categories_segments":[],"categories_sizes":[],"default_left":[0,0,0,0,0],"id":73,"left_children":[1,-1,3,-1,-1],"loss_changes":[2.8379683E1,0E0,3.075984E0,0E0,0E0],"parents":[2147483647,0,0,2,2],"right_children":[2,-1,4,-1,-1],"split_conditions":[1.2E2,-1.4976493E-1,8.4134186E1,2.0863655E-1,-1.075087E-1],"split_indices":[1,0,4,0,0],"split_type":[0,0,0,0,0],"sum_hessian":[9.002893E1,5.1487022E1,3.854191E1,3.6147453E1,2.394454E0],"tree_param":{"num_deleted":"0","num_feature":"7","num_nodes":"5","size_leaf_vector":"1"}},{"base_weights":[6.427023E-3,-1.491655E-1,4.7986227E-1,-1.2790583E-1,5.9507877E-1,-1.3168582E-1,6.6341406E-1,-1.135685E-1,7.395149E-1,-9.591666E-2,7.906268E-1,2.6129878E-1,1.0094577E-1],"categories":[],"categories_nodes":[],"categories_segments":[],"categories_sizes":[],"default_left":[0,0,0,0,0,0,0,0,0,0,0,0,0],"id":74,"left_children":[1,-1,3,-1,5,-1,7,-1,9,-1,11,-1,-1],"loss_changes":[2.2257763E1,0E0,5.276842E0,0E0,3.3366842E0,0E0,3.51729E0,0E0,2.3309937E0,0E0,1.0539894E0,0E0,0E0],"parents":[2147483647,0,0,2,2,4,4,6,6,8,8,10,10],"right_children":[2,-1,4,-1,6,-1,8,-1,10,-1,12,-1,-1],"split_conditions":[1.4924335E2,-1.491655E-1,5.7E1,-1.2790583E-1,2.3059519E1,-1.3168582E-1,6.9961E1,-1.135685E-1,5.9653788E0,-9.591666E-2,1.937462E2,2.6129878E-1,1.0094577E-1],"split_indices":[6,0,0,0,3,0,4,0,5,0,6,0,0],"split_type":[0,0,0,0,0,0,0,0,0,0,0,0,0],"sum_hessian":[9.134545E1,4.4236244E1,4.7109207E1,5.0092654E0,4.209994E1,2.2735567E0,3.9826385E1,2.4402273E0,3.7386158E1,1.4790567E0,3.59071E1,2.972822E1,6.1788807E0],"tree_param":{"num_deleted":"0","num_feature":"7","num_nodes":"13","size_leaf_vector":"1"}},{"base_weights":[-2.4625506E-2,6.047369E-1,-1.497497E-1,6.8526375E-1,-1.1420643E-1,2.1597804E-1,-3.896934E-2],"categories":[],"categories_nodes":[],"categories_segments":[],"categories_sizes":[],"default_left":[0,0,0,0,0,0,0],"id":75,"left_children":[1,3,-1,5,-1,-1,-1],"loss_changes":[2.748421E1,3.401451E0,0E0,1.1374207E0,0E0,0E0,0E0],"parents":[2147483647,0,0,1,1,3,3],"right_children":[2,4,-1,6,-1,-1,-1],"split_conditions":[3.231529E1,2.6E1,-1.497497E-1,2.4677416E1,-1.1420643E-1,2.1597804E-1,-3.896934E-2],"split_indices":[4,2,0,3,0,0,0],"split_type":[0,0,0,0,0,0,0],"sum_hessian":[9.001504E1,3.857727E1,5.1437763E1,3.594456E1,2.6327114E0,3.45905E1,1.3540589E0],"tree_param":{"num_deleted":"0","num_feature":"7","num_nodes":"7","size_leaf_vector":"1"}},{"base_weights":[4.534929E-2,5.2191496E-1,-1.4936645E-1,7.0084536E-1,-1.4201522E-1,-3.0618048E-1,7.92313E-1,7.2297067E-3,-1.22606166E-1,2.439651E-2,2.434902E-1],"categories":[],"categories_nodes":[],"categories_segments":[],"categories_sizes":[],"default_left":[0,0,0,0,0,0,0,0,0,0,0],"id":76,"left_children":[1,3,-1,5,-1,7,9,-1,-1,-1,-1],"loss_changes":[2.5666824E1,9.728751E0,0E0,4.3993683E0,0E0,1.6148731E-1,5.0613785E-1,0E0,0E0,0E0,0E0],"parents":[2147483647,0,0,1,1,3,3,5,5,6,6],"right_children":[2,4,-1,6,-1,8,10,-1,-1,-1,-1],"split_conditions":[5.521607E1,6.9961E1,-1.4936645E-1,6.011681E1,-1.4201522E-1,2.5950586E1,5.6E1,7.2297067E-3,-1.22606166E-1,2.439651E-2,2.434902E-1],"split_indices":[6,4,0,4,0,3,1,0,0,0,0],"split_type":[0,0,0,0,0,0,0,0,0,0,0],"sum_hessian":[9.7138725E1,5.176559E1,4.537313E1,4.4128258E1,7.637336E0,3.4789407E0,4.0649315E1,1.005167E0,2.4737737E0,1.2132182E0,3.9436096E1],"tree_param":{"num_deleted":"0","num_feature":"7","num_nodes":"11","size_leaf_vector":"1"}},{"base_weights":[-2.6544046E-2,-1.4842024E-1,2.7444485E-1,5.8545345E-1,-1.4368117E-1,6.7766076E-1,-1.157456E-1,2.1700238E-1,-3.8464048E-3],"categories":[],"categories_nodes":[],"categories_segments":[],"categories_sizes":[],"default_left":[0,0,0,0,0,0,0,0,0],"id":77,"left_children":[1,-1,3,5,-1,7,-1,-1,-1],"loss_changes":[1.2988863E1,0E0,1.3439302E1,3.8617754E0,0E0,1.178772E0,0E0,0E0,0E0],"parents":[2147483647,0,0,2,2,3,3,5,5],"right_children":[2,-1,4,6,-1,8,-1,-1,-1],"split_conditions":[6E1,-1.4842024E-1,2.6E1,1E2,-1.4368117E-1,2.6105513E1,-1.157456E-1,2.1700238E-1,-3.8464048E-3],"split_indices":[0,0,2,0,0,3,0,0,0],"split_type":[0,0,0,0,0,0,0,0,0],"sum_hessian":[9.020838E1,3.504773E1,5.5160652E1,3.920081E1,1.5959844E1,3.607805E1,3.1227598E0,3.3794693E1,2.2833567E0],"tree_param":{"num_deleted":"0","num_feature":"7","num_nodes":"9","size_leaf_vector":"1"}},{"base_weights":[-9.737135E-3,4.4938236E-1,-1.4924166E-1,6.515619E-1,-1.3656121E-1,7.362587E-1,-1.3969064E-1,2.3005216E-1,-1.6966328E-2],"categories":[],"categories_nodes":[],"categories_segments":[],"categories_sizes":[],"default_left":[0,0,0,0,0,0,0,0,0],"id":78,"left_children":[1,3,-1,5,-1,7,-1,-1,-1],"loss_changes":[2.0909258E1,9.095272E0,0E0,4.102417E0,0E0,9.4820976E-1,0E0,0E0,0E0],"parents":[2147483647,0,0,1,1,3,3,5,5],"right_children":[2,4,-1,6,-1,8,-1,-1,-1],"split_conditions":[5.520522E1,4.1E1,-1.4924166E-1,6.967843E0,-1.3656121E-1,4E1,-1.3969064E-1,2.3005216E-1,-1.6966328E-2],"split_indices":[4,1,0,5,0,0,0,0,0],"split_type":[0,0,0,0,0,0,0,0,0],"sum_hessian":[9.1376305E1,4.710943E1,4.4266872E1,3.8732285E1,8.377144E0,3.631979E1,2.4124932E0,3.5002377E1,1.3174146E0],"tree_param":{"num_deleted":"0","num_feature":"7","num_nodes":"9","size_leaf_vector":"1"}},{"base_weights":[7.370803E-2,4.6359432E-1,-1.485537E-1,7.661532E-1,-1.4243962E-1,8.918442E-1,-1.2173978E-1,-8.9762315E-2,9.418825E-1,2.9121986E-1,1.11952074E-1],"categories":[],"categories_nodes":[],"categories_segments":[],"categories_sizes":[],"default_left":[0,0,0,0,0,0,0,0,0,0,0],"id":79,"left_children":[1,3,-1,5,-1,7,-1,-1,9,-1,-1],"loss_changes":[2.0654163E1,1.6023354E1,0E0,6.561964E0,0E0,2.565981E0,0E0,0E0,2.4518204E-1,0E0,0E0],"parents":[2147483647,0,0,1,1,3,3,5,5,8,8],"right_children":[2,4,-1,6,-1,8,-1,-1,10,-1,-1],"split_conditions":[6.510343E1,7.4535576E1,-1.485537E-1,6.1E1,-1.4243962E-1,2.3579435E1,-1.2173978E-1,-8.9762315E-2,4E1,2.9121986E-1,1.11952074E-1],"split_indices":[4,6,0,1,0,3,0,0,0,0,0],"split_type":[0,0,0,0,0,0,0,0,0,0,0],"sum_hessian":[9.1085144E1,5.4155087E1,3.693006E1,4.1090225E1,1.306486E1,3.7326046E1,3.7641788E0,1.304146E0,3.60219E1,3.3609978E1,2.4119213E0],"tree_param":{"num_deleted":"0","num_feature":"7","num_nodes":"11","size_leaf_vector":"1"}},{"base_weights":[-2.9633282E-2,4.1762415E-1,-1.4926204E-1,-1.3358776E-1,5.540515E-1,6.3290393E-1,-1.12843744E-1,-1.077456E-1,2.1258132E-1],"categories":[],"categories_nodes":[],"categories_segments":[],"categories_sizes":[],"default_left":[0,0,0,0,0,0,0,0,0],"id":80,"left_children":[1,3,-1,-1,5,7,-1,-1,-1],"loss_changes":[1.9181507E1,5.767873E0,0E0,0E0,3.2410707E0,3.1169062E0,0E0,0E0,0E0],"parents":[2147483647,0,0,1,1,4,4,5,5],"right_children":[2,4,-1,-1,6,8,-1,-1,-1],"split_conditions":[6.0951973E1,2.7061796E1,-1.4926204E-1,-1.3358776E-1,2.6E1,6.9961E1,-1.12843744E-1,-1.077456E-1,2.1258132E-1],"split_indices":[6,3,0,0,2,4,0,0,0],"split_type":[0,0,0,0,0,0,0,0,0],"sum_hessian":[8.966415E1,4.589859E1,4.3765556E1,5.9568667E0,3.9941727E1,3.7115097E1,2.8266282E0,2.3658743E0,3.474922E1],"tree_param":{"num_deleted":"0","num_feature":"7","num_nodes":"9","size_leaf_vector":"1"}},{"base_weights":[-2.287521E-2,2.0991425E-1,-1.498651E-1],"categories":[],"categories_nodes":[],"categories_segments":[],"categories_sizes":[],"default_left":[0,0,0],"id":81,"left_children":[1,-1,-1],"loss_changes":[3.1316978E1,0E0,0E0],"parents":[2147483647,0,0],"right_children":[2,-1,-1],"split_conditions":[3.0920141E1,2.0991425E-1,-1.498651E-1],"split_indices":[6,0,0],"split_type":[0,0,0],"sum_hessian":[8.8906525E1,3.5151955E1,5.3754574E1],"tree_param":{"num_deleted":"0","num_feature":"7","num_nodes":"3","size_leaf_vector":"1"}},{"base_weights":[1.5845595E-2,6.7911893E-1,-1.4972995E-1,2.2676419E-1,-1.0937353E-1],"categories":[],"categories_nodes":[],"categories_segments":[],"categories_sizes":[],"default_left":[0,0,0,0,0],"id":82,"left_children":[1,3,-1,-1,-1],"loss_changes":[3.1784927E1,3.5332966E0,0E0,0E0,0E0],"parents":[2147483647,0,0,1,1],"right_children":[2,4,-1,-1,-1],"split_conditions":[1.6E1,3.1E1,-1.4972995E-1,2.2676419E-1,-1.0937353E-1],"split_indices":[2,1,0,0,0],"split_type":[0,0,0,0,0],"sum_hessian":[9.106857E1,3.966256E1,5.1406013E1,3.7202187E1,2.4603727E0],"tree_param":{"num_deleted":"0","num_feature":"7","num_nodes":"5","size_leaf_vector":"1"}},{"base_weights":[7.4950345E-3,-1.4920233E-1,4.7008133E-1,-1.3713612E-1,6.941001E-1,2.3191741E-1,-1.0750722E-1],"categories":[],"categories_nodes":[],"categories_segments":[],"categories_sizes":[],"default_left":[0,0,0,0,0,0,0],"id":83,"left_children":[1,-1,3,-1,5,-1,-1],"loss_changes":[2.1368582E1,0E0,1.0233585E1,0E0,3.5052948E0,0E0,0E0],"parents":[2147483647,0,0,2,2,4,4],"right_children":[2,-1,4,-1,6,-1,-1],"split_conditions":[8.9996155E1,-1.4920233E-1,4.1E1,-1.3713612E-1,7.1E1,2.3191741E-1,-1.0750722E-1],"split_indices":[4,0,1,0,1,0,0],"split_type":[0,0,0,0,0,0,0],"sum_hessian":[8.95013E1,4.2760345E1,4.6740948E1,8.892952E0,3.7847996E1,3.545365E1,2.3943467E0],"tree_param":{"num_deleted":"0","num_feature":"7","num_nodes":"7","size_leaf_vector":"1"}},{"base_weights":[6.2393434E-2,4.0892357E-1,-4.687783E-1,-1.4176436E-1,6.576963E-1,6.1499495E-2,-1.4833696E-1,-1.3632035E-1,8.475743E-1,-1.00103915E-1,9.1790354E-1,4.9083033E-1,2.5533012E-1],"categories":[],"categories_nodes":[],"categories_segments":[],"categories_sizes":[],"default_left":[0,0,0,0,0,0,0,0,0,0,0,0,0],"id":84,"left_children":[1,3,5,-1,7,-1,-1,-1,9,-1,11,-1,-1],"loss_changes":[1.7379452E1,1.2819935E1,7.472725E-1,0E0,9.867844E0,0E0,0E0,0E0,3.5219288E0,0E0,3.730259E-1,0E0,0E0],"parents":[2147483647,0,0,1,1,2,2,4,4,8,8,10,10],"right_children":[2,4,6,-1,8,-1,-1,-1,10,-1,12,-1,-1],"split_conditions":[6.665953E1,9.1638954E1,5.4039083E0,-1.4176436E-1,5.5E1,6.1499495E-2,-1.4833696E-1,-1.3632035E-1,2.4968817E1,-1.00103915E-1,9.677286E1,4.9083033E-1,2.5533012E-1],"split_indices":[4,6,5,0,1,0,0,0,4,0,6,0,0],"split_type":[0,0,0,0,0,0,0,0,0,0,0,0,0],"sum_hessian":[9.2377716E1,5.604486E1,3.6332855E1,1.2137783E1,4.3907078E1,1.0774721E0,3.5255383E1,6.200167E0,3.7706913E1,1.9084213E0,3.579849E1,1.0473318E0,3.475116E1],"tree_param":{"num_deleted":"0","num_feature":"7","num_nodes":"13","size_leaf_vector":"1"}},{"base_weights":[-4.6474293E-2,3.5423058E-1,-1.4907408E-1,5.942932E-1,-1.3900582E-1,-1.0741148E-1,6.6973364E-1,-1.6629422E-2,2.097148E-1],"categories":[],"categories_nodes":[],"categories_segments":[],"categories_sizes":[],"default_left":[0,0,0,0,0,0,0,0,0],"id":85,"left_children":[1,3,-1,5,-1,-1,7,-1,-1],"loss_changes":[1.6100294E1,9.554023E0,0E0,2.8967714E0,0E0,0E0,7.7464485E-1,0E0,0E0],"parents":[2147483647,0,0,1,1,3,3,6,6],"right_children":[2,4,-1,6,-1,-1,8,-1,-1],"split_conditions":[3.1E1,2.497256E1,-1.4907408E-1,3.5E1,-1.3900582E-1,-1.0741148E-1,1.025538E2,-1.6629422E-2,2.097148E-1],"split_indices":[1,3,0,2,0,0,6,0,0],"split_type":[0,0,0,0,0,0,0,0,0],"sum_hessian":[8.722644E1,4.627468E1,4.0951763E1,3.5982456E1,1.0292224E1,2.3662221E0,3.3616234E1,1.2715582E0,3.2344673E1],"tree_param":{"num_deleted":"0","num_feature":"7","num_nodes":"9","size_leaf_vector":"1"}},{"base_weights":[3.91347E-2,-1.4954817E-1,6.5001136E-1,-1.1281544E-1,7.279922E-1,-8.929203E-2,7.714828E-1,2.3598212E-1,7.672552E-2],"categories":[],"categories_nodes":[],"categories_segments":[],"categories_sizes":[],"default_left":[0,0,0,0,0,0,0,0,0],"id":86,"left_children":[1,-1,3,-1,5,-1,7,-1,-1],"loss_changes":[3.0929766E1,0E0,3.798914E0,0E0,2.0711975E0,0E0,1.0992813E-1,0E0,0E0],"parents":[2147483647,0,0,2,2,4,4,6,6],"right_children":[2,-1,4,-1,6,-1,8,-1,-1],"split_conditions":[1.8226881E2,-1.4954817E-1,5.7E1,-1.1281544E-1,7.995151E1,-8.929203E-2,8.485936E1,2.3598212E-1,7.672552E-2],"split_indices":[6,0,0,0,4,0,4,0,0],"split_type":[0,0,0,0,0,0,0,0,0],"sum_hessian":[9.21895E1,4.9132378E1,4.3057117E1,2.7712302E0,4.028589E1,1.401064E0,3.8884823E1,3.726672E1,1.6181022E0],"tree_param":{"num_deleted":"0","num_feature":"7","num_nodes":"9","size_leaf_vector":"1"}},{"base_weights":[-3.3275537E-2,4.2567778E-1,-1.4927515E-1,-1.3534693E-1,6.176018E-1,2.0941997E-1,-1.09098256E-1],"categories":[],"categories_nodes":[],"categories_segments":[],"categories_sizes":[],"default_left":[0,0,0,0,0,0,0],"id":87,"left_children":[1,3,-1,-1,5,-1,-1],"loss_changes":[1.928898E1,7.945813E0,0E0,0E0,3.2385178E0,0E0,0E0],"parents":[2147483647,0,0,1,1,4,4],"right_children":[2,4,-1,-1,6,-1,-1],"split_conditions":[5.9844994E1,6.9E1,-1.4927515E-1,-1.3534693E-1,2.7022692E1,2.0941997E-1,-1.09098256E-1],"split_indices":[6,0,0,0,3,0,0],"split_type":[0,0,0,0,0,0,0],"sum_hessian":[8.852391E1,4.456052E1,4.396339E1,7.759475E0,3.6801044E1,3.427875E1,2.5222943E0],"tree_param":{"num_deleted":"0","num_feature":"7","num_nodes":"7","size_leaf_vector":"1"}},{"base_weights":[-4.3680727E-2,-1.4844851E-1,5.567635E-1,-1.02646604E-1,1.9002429E-1],"categories":[],"categories_nodes":[],"categories_segments":[],"categories_sizes":[],"default_left":[0,0,0,0,0],"id":88,"left_children":[1,-1,3,-1,-1],"loss_changes":[1.955737E1,0E0,2.3532467E0,0E0,0E0],"parents":[2147483647,0,0,2,2],"right_children":[2,-1,4,-1,-1],"split_conditions":[1.2E2,-1.4844851E-1,8.4134186E1,-1.02646604E-1,1.9002429E-1],"split_indices":[1,0,4,0,0],"split_type":[0,0,0,0,0],"sum_hessian":[7.0179955E1,4.0172207E1,3.000775E1,2.0855632E0,2.7922186E1],"tree_param":{"num_deleted":"0","num_feature":"7","num_nodes":"5","size_leaf_vector":"1"}},{"base_weights":[-4.046545E-2,-1.4781004E-1,3.7974963E-1,-1.3572279E-1,1.8932074E-1],"categories":[],"categories_nodes":[],"categories_segments":[],"categories_sizes":[],"default_left":[0,0,0,0,0],"id":89,"left_children":[1,-1,3,-1,-1],"loss_changes":[1.3802615E1,0E0,8.170628E0,0E0,0E0],"parents":[2147483647,0,0,2,2],"right_children":[2,-1,4,-1,-1],"split_conditions":[7E1,-1.4781004E-1,6.9E1,-1.3572279E-1,1.8932074E-1],"split_indices":[1,0,0,0,0],"split_type":[0,0,0,0,0],"sum_hessian":[7.064709E1,3.394406E1,3.6703026E1,8.327897E0,2.837513E1],"tree_param":{"num_deleted":"0","num_feature":"7","num_nodes":"5","size_leaf_vector":"1"}},{"base_weights":[-1.3574025E-2,2.7444658E-1,-1.467942E-1,-1.378166E-1,4.7835502E-1,-1.2565312E-1,5.9689003E-1,6.546755E-1,-9.520151E-2,-1.8052116E-2,6.8564004E-1,5.738551E-2,2.0913053E-1],"categories":[],"categories_nodes":[],"categories_segments":[],"categories_sizes":[],"default_left":[0,0,0,0,0,0,0,0,0,0,0,0,0],"id":90,"left_children":[1,3,-1,-1,5,-1,7,9,-1,-1,11,-1,-1],"loss_changes":[1.0304136E1,7.2334065E0,0E0,0E0,4.202963E0,0E0,1.9640179E0,7.4059963E-1,0E0,0E0,3.8695335E-2,0E0,0E0],"parents":[2147483647,0,0,1,1,4,4,6,6,7,7,10,10],"right_children":[2,4,-1,-1,6,-1,8,10,-1,-1,12,-1,-1],"split_conditions":[7.503248E1,5.9844994E1,-1.467942E-1,-1.378166E-1,2.5010185E1,-1.2565312E-1,7.131343E1,6.011681E1,-9.520151E-2,-1.8052116E-2,6.5022893E0,5.738551E-2,2.0913053E-1],"split_indices":[6,6,0,0,3,0,4,4,0,0,5,0,0],"split_type":[0,0,0,0,0,0,0,0,0,0,0,0,0],"sum_hessian":[7.322005E1,4.58717E1,2.7348347E1,9.702168E0,3.6169533E1,3.925288E0,3.2244244E1,3.0594376E1,1.6498687E0,1.2310474E0,2.9363327E1,1.0661932E0,2.8297134E1],"tree_param":{"num_deleted":"0","num_feature":"7","num_nodes":"13","size_leaf_vector":"1"}},{"base_weights":[-4.557309E-2,6.2103194E-1,-1.4853227E-1,1.9576393E-1,-2.2418829E-2],"categories":[],"categories_nodes":[],"categories_segments":[],"categories_sizes":[],"default_left":[0,0,0,0,0],"id":91,"left_children":[1,3,-1,-1,-1],"loss_changes":[2.1294584E1,6.769848E-1,0E0,0E0,0E0],"parents":[2147483647,0,0,1,1],"right_children":[2,4,-1,-1,-1],"split_conditions":[2.0746193E1,9.431102E1,-1.4853227E-1,1.9576393E-1,-2.2418829E-2],"split_indices":[4,6,0,0,0],"split_type":[0,0,0,0,0],"sum_hessian":[6.903595E1,2.7651148E1,4.13848E1,2.6512384E1,1.1387649E0],"tree_param":{"num_deleted":"0","num_feature":"7","num_nodes":"5","size_leaf_vector":"1"}},{"base_weights":[1.4723298E-3,-1.4781468E-1,4.3402618E-1,-1.3615228E-1,6.6174793E-1,2.1199448E-1,-8.289489E-2],"categories":[],"categories_nodes":[],"categories_segments":[],"categories_sizes":[],"default_left":[0,0,0,0,0,0,0],"id":92,"left_children":[1,-1,3,-1,5,-1,-1],"loss_changes":[1.6033447E1,0E0,8.386834E0,0E0,1.5530987E0,0E0,0E0],"parents":[2147483647,0,0,2,2,4,4],"right_children":[2,-1,4,-1,6,-1,-1],"split_conditions":[9.026457E1,-1.4781468E-1,1.2934494E2,-1.3615228E-1,3.1E1,2.1199448E-1,-8.289489E-2],"split_indices":[4,0,6,0,1,0,0],"split_type":[0,0,0,0,0,0,0],"sum_hessian":[7.300535E1,3.4010105E1,3.8995243E1,7.7572894E0,3.1237955E1,3.004648E1,1.1914749E0],"tree_param":{"num_deleted":"0","num_feature":"7","num_nodes":"7","size_leaf_vector":"1"}},{"base_weights":[5.4437656E-2,-1.4744736E-1,4.5022663E-1,7.379274E-1,-1.3859975E-1,4.55353E-2,2.2755973E-1],"categories":[],"categories_nodes":[],"categories_segments":[],"categories_sizes":[],"default_left":[0,0,0,0,0,0,0],"id":93,"left_children":[1,-1,3,5,-1,-1,-1],"loss_changes":[1.6614555E1,0E0,1.2021051E1,2.981472E-1,0E0,0E0,0E0],"parents":[2147483647,0,0,2,2,3,3],"right_children":[2,-1,4,6,-1,-1,-1],"split_conditions":[8E1,-1.4744736E-1,6.9961E1,2.310694E1,-1.3859975E-1,4.55353E-2,2.2755973E-1],"split_indices":[0,0,4,3,0,0,0],"split_type":[0,0,0,0,0,0,0],"sum_hessian":[7.4869286E1,3.136474E1,4.3504543E1,3.321892E1,1.0285621E1,1.4122295E0,3.180669E1],"tree_param":{"num_deleted":"0","num_feature":"7","num_nodes":"7","size_leaf_vector":"1"}},{"base_weights":[2.8780585E-2,-1.4820789E-1,5.346519E-1,6.503684E-1,-1.21584274E-1,-3.6826197E-2,2.0540743E-1],"categories":[],"categories_nodes":[],"categories_segments":[],"categories_sizes":[],"default_left":[0,0,0,0,0,0,0],"id":94,"left_children":[1,-1,3,5,-1,-1,-1],"loss_changes":[2.0815472E1,0E0,4.611307E0,1.0386887E0,0E0,0E0,0E0],"parents":[2147483647,0,0,2,2,3,3],"right_children":[2,-1,4,6,-1,-1,-1],"split_conditions":[1E2,-1.4820789E-1,2.6E1,7.51464E1,-1.21584274E-1,-3.6826197E-2,2.0540743E-1],"split_indices":[0,0,2,4,0,0,0],"split_type":[0,0,0,0,0,0,0],"sum_hessian":[7.6706764E1,3.7733467E1,3.8973293E1,3.497548E1,3.9978144E0,1.3772207E0,3.359826E1],"tree_param":{"num_deleted":"0","num_feature":"7","num_nodes":"7","size_leaf_vector":"1"}},{"base_weights":[-1.9321958E-2,-1.4844851E-1,5.649526E-1,1.8905428E-1,-9.9981554E-2],"categories":[],"categories_nodes":[],"categories_segments":[],"categories_sizes":[],"default_left":[0,0,0,0,0],"id":95,"left_children":[1,-1,3,-1,-1],"loss_changes":[2.0758936E1,0E0,2.1751585E0,0E0,0E0],"parents":[2147483647,0,0,2,2],"right_children":[2,-1,4,-1,-1],"split_conditions":[1.2E2,-1.4844851E-1,8.4134186E1,1.8905428E-1,-9.9981554E-2],"split_indices":[1,0,4,0,0],"split_type":[0,0,0,0,0],"sum_hessian":[7.27129E1,4.0172207E1,3.2540688E1,3.0615808E1,1.9248794E0],"tree_param":{"num_deleted":"0","num_feature":"7","num_nodes":"5","size_leaf_vector":"1"}},{"base_weights":[1.0736804E-2,-1.4771505E-1,4.2535493E-1,-1.22411035E-1,5.224772E-1,5.9428525E-1,-1.0935406E-1,-1.1369217E-1,6.4009047E-1,6.7453885E-1,-3.0765614E-2,6.0344073E-3,2.1202047E-1],"categories":[],"categories_nodes":[],"categories_segments":[],"categories_sizes":[],"default_left":[0,0,0,0,0,0,0,0,0,0,0,0,0],"id":96,"left_children":[1,-1,3,-1,5,7,-1,-1,9,11,-1,-1,-1],"loss_changes":[1.633991E1,0E0,3.6878324E0,0E0,2.6933928E0,1.8632469E0,0E0,0E0,9.669218E-1,6.951637E-1,0E0,0E0,0E0],"parents":[2147483647,0,0,2,2,4,4,5,5,8,8,9,9],"right_children":[2,-1,4,-1,6,8,-1,-1,10,12,-1,-1,-1],"split_conditions":[1.4924335E2,-1.4771505E-1,3.5E1,-1.22411035E-1,1.9979364E2,2.2697802E1,-1.0935406E-1,-1.1369217E-1,2.6985823E1,6.002996E0,-3.0765614E-2,6.0344073E-3,2.1202047E-1],"split_indices":[6,0,2,0,6,3,0,0,3,5,0,0,0],"split_type":[0,0,0,0,0,0,0,0,0,0,0,0,0],"sum_hessian":[7.632626E1,3.4398132E1,4.1928127E1,4.042112E0,3.7886017E1,3.5353874E1,2.5321407E0,1.2621622E0,3.4091713E1,3.2668068E1,1.4236441E0,1.608012E0,3.1060059E1],"tree_param":{"num_deleted":"0","num_feature":"7","num_nodes":"13","size_leaf_vector":"1"}},{"base_weights":[-2.5281958E-2,5.419491E-1,-1.4843147E-1,6.1295813E-1,-1.06495984E-1,1.9395728E-1,-3.364488E-2],"categories":[],"categories_nodes":[],"categories_segments":[],"categories_sizes":[],"default_left":[0,0,0,0,0,0,0],"id":97,"left_children":[1,3,-1,5,-1,-1,-1],"loss_changes":[2.002782E1,2.3880825E0,0E0,8.50029E-1,0E0,0E0,0E0],"parents":[2147483647,0,0,1,1,3,3],"right_children":[2,4,-1,6,-1,-1,-1],"split_conditions":[3.231529E1,2.6E1,-1.4843147E-1,2.4677416E1,-1.06495984E-1,1.9395728E-1,-3.364488E-2],"split_indices":[4,2,0,3,0,0,0],"split_type":[0,0,0,0,0,0,0],"sum_hessian":[7.31983E1,3.3078712E1,4.0119595E1,3.094542E1,2.1332934E0,2.9679876E1,1.2655427E0],"tree_param":{"num_deleted":"0","num_feature":"7","num_nodes":"7","size_leaf_vector":"1"}},{"base_weights":[4.2859107E-2,4.6550184E-1,-1.4795665E-1,6.158264E-1,-1.361343E-1,-1.1597083E-1,6.866949E-1,1.3282776E-2,2.1245746E-1],"categories":[],"categories_nodes":[],"categories_segments":[],"categories_sizes":[],"default_left":[0,0,0,0,0,0,0,0,0],"id":98,"left_children":[1,3,-1,5,-1,-1,7,-1,-1],"loss_changes":[1.8691463E1,6.6471004E0,0E0,3.108901E0,0E0,0E0,4.898796E-1,0E0,0E0],"parents":[2147483647,0,0,1,1,3,3,6,6],"right_children":[2,4,-1,6,-1,-1,8,-1,-1],"split_conditions":[5.521607E1,6.9961E1,-1.4795665E-1,5.964024E1,-1.361343E-1,-1.1597083E-1,5.6E1,1.3282776E-2,2.1245746E-1],"split_indices":[6,4,0,4,0,0,1,0,0],"split_type":[0,0,0,0,0,0,0,0,0],"sum_hessian":[8.048899E1,4.507867E1,3.5410316E1,3.902694E1,6.0517306E0,2.28283E0,3.674411E1,1.2887853E0,3.5455326E1],"tree_param":{"num_deleted":"0","num_feature":"7","num_nodes":"9","size_leaf_vector":"1"}},{"base_weights":[-2.6154278E-2,-1.4675313E-1,2.5144237E-1,5.2477854E-1,-1.4095852E-1,6.04729E-1,-1.0878272E-1,6.403238E-1,-4.5731056E-2,1.9658302E-1,6.446514E-2],"categories":[],"categories_nodes":[],"categories_segments":[],"categories_sizes":[],"default_left":[0,0,0,0,0,0,0,0,0,0,0],"id":99,"left_children":[1,-1,3,5,-1,7,-1,9,-1,-1,-1],"loss_changes":[9.726335E0,0E0,9.586129E0,2.690031E0,0E0,9.6872044E-1,0E0,5.6798935E-2,0E0,0E0,0E0],"parents":[2147483647,0,0,2,2,3,3,5,5,7,7],"right_children":[2,-1,4,6,-1,8,-1,10,-1,-1,-1],"split_conditions":[6E1,-1.4675313E-1,2.6E1,1E2,-1.4095852E-1,1.0918212E2,-1.0878272E-1,6.9324E0,-4.5731056E-2,1.9658302E-1,6.446514E-2],"split_indices":[0,0,2,0,0,6,0,5,0,0,0],"split_type":[0,0,0,0,0,0,0,0,0,0,0],"sum_hessian":[7.371459E1,2.734379E1,4.6370804E1,3.382527E1,1.2545534E1,3.1321815E1,2.5034552E0,3.0062857E1,1.2589588E0,2.852023E1,1.5426271E0],"tree_param":{"num_deleted":"0","num_feature":"7","num_nodes":"11","size_leaf_vector":"1"}},{"base_weights":[-1.1103721E-2,4.058126E-1,-1.478041E-1,-1.4188623E-1,5.7715446E-1,-1.1298784E-1,2.0204145E-1],"categories":[],"categories_nodes":[],"categories_segments":[],"categories_sizes":[],"default_left":[0,0,0,0,0,0,0],"id":100,"left_children":[1,3,-1,-1,5,-1,-1],"loss_changes":[1.5370263E1,6.453266E0,0E0,0E0,3.4504833E0,0E0,0E0],"parents":[2147483647,0,0,1,1,4,4],"right_children":[2,4,-1,-1,6,-1,-1],"split_conditions":[5.520522E1,2.5E1,-1.478041E-1,-1.4188623E-1,2.6723001E1,-1.1298784E-1,2.0204145E-1],"split_indices":[4,2,0,0,3,0,0],"split_type":[0,0,0,0,0,0,0],"sum_hessian":[7.4558044E1,4.004614E1,3.4511906E1,6.246943E0,3.3799194E1,2.833191E0,3.0966005E1],"tree_param":{"num_deleted":"0","num_feature":"7","num_nodes":"7","size_leaf_vector":"1"}},{"base_weights":[7.314695E-2,4.1229853E-1,-1.4695406E-1,6.5412736E-1,-1.3908848E-1,7.510869E-1,-1.149564E-1,2.3821162E-1,-8.472419E-2],"categories":[],"categories_nodes":[],"categories_segments":[],"categories_sizes":[],"default_left":[0,0,0,0,0,0,0,0,0],"id":101,"left_children":[1,3,-1,5,-1,7,-1,-1,-1],"loss_changes":[1.5106648E1,1.0737067E1,0E0,4.2118206E0,0E0,1.8230953E0,0E0,0E0,0E0],"parents":[2147483647,0,0,1,1,3,3,5,5],"right_children":[2,4,-1,6,-1,8,-1,-1,-1],"split_conditions":[6.510343E1,7.4535576E1,-1.4695406E-1,6.1E1,-1.3908848E-1,4.1E1,-1.149564E-1,2.3821162E-1,-8.472419E-2],"split_indices":[4,6,0,1,0,0,0,0,0],"split_type":[0,0,0,0,0,0,0,0,0],"sum_hessian":[7.7059425E1,4.8256824E1,2.8802597E1,3.801479E1,1.0242035E1,3.5017574E1,2.9972167E0,3.384278E1,1.1747907E0],"tree_param":{"num_deleted":"0","num_feature":"7","num_nodes":"9","size_leaf_vector":"1"}},{"base_weights":[-3.222901E-2,3.7854436E-1,-1.4782515E-1,-1.2796569E-1,5.0029033E-1,5.7043123E-1,-1.0557524E-1,-1.0062929E-1,1.9157983E-1],"categories":[],"categories_nodes":[],"categories_segments":[],"categories_sizes":[],"default_left":[0,0,0,0,0,0,0,0,0],"id":102,"left_children":[1,3,-1,-1,5,7,-1,-1,-1],"loss_changes":[1.4128376E1,4.087004E0,0E0,0E0,2.2802267E0,2.22264E0,0E0,0E0,0E0],"parents":[2147483647,0,0,1,1,4,4,5,5],"right_children":[2,4,-1,-1,6,8,-1,-1,-1],"split_conditions":[6.0951973E1,2.7061796E1,-1.4782515E-1,-1.2796569E-1,2.6E1,6.9961E1,-1.0557524E-1,-1.0062929E-1,1.9157983E-1],"split_indices":[6,3,0,0,2,4,0,0,0],"split_type":[0,0,0,0,0,0,0,0,0],"sum_hessian":[7.270011E1,3.8519615E1,3.41805E1,4.7309012E0,3.378871E1,3.1524715E1,2.2639966E0,1.9318913E0,2.9592825E1],"tree_param":{"num_deleted":"0","num_feature":"7","num_nodes":"9","size_leaf_vector":"1"}},{"base_weights":[-2.3239719E-2,1.9000745E-1,-1.4857922E-1],"categories":[],"categories_nodes":[],"categories_segments":[],"categories_sizes":[],"default_left":[0,0,0],"id":103,"left_children":[1,-1,-1],"loss_changes":[2.2877748E1,0E0,0E0],"parents":[2147483647,0,0],"right_children":[2,-1,-1],"split_conditions":[3.0920141E1,1.9000745E-1,-1.4857922E-1],"split_indices":[6,0,0],"split_type":[0,0,0],"sum_hessian":[7.180372E1,2.9887568E1,4.1916153E1],"tree_param":{"num_deleted":"0","num_feature":"7","num_nodes":"3","size_leaf_vector":"1"}},{"base_weights":[1.390381E-2,6.0881513E-1,-1.4841507E-1,2.0274915E-1,-1.0177154E-1],"categories":[],"categories_nodes":[],"categories_segments":[],"categories_sizes":[],"default_left":[0,0,0,0,0],"id":104,"left_children":[1,3,-1,-1,-1],"loss_changes":[2.3055695E1,2.4598522E0,0E0,0E0,0E0],"parents":[2147483647,0,0,1,1],"right_children":[2,4,-1,-1,-1],"split_conditions":[1.6E1,3.1E1,-1.4841507E-1,2.0274915E-1,-1.0177154E-1],"split_indices":[2,1,0,0,0],"split_type":[0,0,0,0,0],"sum_hessian":[7.420056E1,3.4108433E1,4.009213E1,3.212476E1,1.9836719E0],"tree_param":{"num_deleted":"0","num_feature":"7","num_nodes":"5","size_leaf_vector":"1"}},{"base_weights":[6.941781E-3,-1.4774913E-1,4.2518577E-1,-1.3296428E-1,6.157657E-1,2.0486155E-1,-9.998002E-2],"categories":[],"categories_nodes":[],"categories_segments":[],"categories_sizes":[],"default_left":[0,0,0,0,0,0,0],"id":105,"left_children":[1,-1,3,-1,5,-1,-1],"loss_changes":[1.5773582E1,0E0,7.0729485E0,0E0,2.400032E0,0E0,0E0],"parents":[2147483647,0,0,2,2,4,4],"right_children":[2,-1,4,-1,6,-1,-1],"split_conditions":[8.9996155E1,-1.4774913E-1,4.1E1,-1.3296428E-1,7.1E1,2.0486155E-1,-9.998002E-2],"split_indices":[4,0,1,0,1,0,0],"split_type":[0,0,0,0,0,0,0],"sum_hessian":[7.350995E1,3.3422047E1,4.00879E1,6.975878E0,3.311202E1,3.1187223E1,1.9247954E0],"tree_param":{"num_deleted":"0","num_feature":"7","num_nodes":"7","size_leaf_vector":"1"}},{"base_weights":[6.368514E-2,3.5614616E-1,-1.4751467E-1,-1.4166714E-1,6.411685E-1,-1.1646354E-1,7.456403E-1,-8.8826805E-2,2.3894136E-1],"categories":[],"categories_nodes":[],"categories_segments":[],"categories_sizes":[],"default_left":[0,0,0,0,0,0,0,0,0],"id":106,"left_children":[1,3,-1,-1,5,-1,7,-1,-1],"loss_changes":[1.298312E1,1.263497E1,0E0,0E0,4.5142307E0,0E0,2.1425133E0,0E0,0E0],"parents":[2147483647,0,0,1,1,4,4,6,6],"right_children":[2,4,-1,-1,6,-1,8,-1,-1],"split_conditions":[2.6E1,9.1638954E1,-1.4751467E-1,-1.4166714E-1,5.5E1,-1.1646354E-1,2.4968817E1,-8.8826805E-2,2.3894136E-1],"split_indices":[2,6,0,0,1,0,4,0,0],"split_type":[0,0,0,0,0,0,0,0,0],"sum_hessian":[7.785092E1,5.123207E1,2.6618853E1,1.2946993E1,3.828508E1,3.277298E0,3.5007782E1,1.4042411E0,3.360354E1],"tree_param":{"num_deleted":"0","num_feature":"7","num_nodes":"9","size_leaf_vector":"1"}},{"base_weights":[-4.8201166E-2,3.238455E-1,-1.475849E-1,5.357761E-1,-1.3516662E-1,-9.9859245E-2,6.029226E-1,-1.3981447E-2,1.892136E-1],"categories":[],"categories_nodes":[],"categories_segments":[],"categories_sizes":[],"default_left":[0,0,0,0,0,0,0,0,0],"id":107,"left_children":[1,3,-1,5,-1,-1,7,-1,-1],"loss_changes":[1.1978114E1,6.7311506E0,0E0,2.0381556E0,0E0,0E0,5.636444E-1,0E0,0E0],"parents":[2147483647,0,0,1,1,3,3,6,6],"right_children":[2,4,-1,6,-1,-1,8,-1,-1],"split_conditions":[3.1E1,2.497256E1,-1.475849E-1,3.5E1,-1.3516662E-1,-9.9859245E-2,1.025538E2,-1.3981447E-2,1.892136E-1],"split_indices":[1,3,0,2,0,0,6,0,0],"split_type":[0,0,0,0,0,0,0,0,0],"sum_hessian":[7.05878E1,3.8542927E1,3.2044876E1,3.0503237E1,8.039691E0,1.9047818E0,2.8598455E1,1.1455742E0,2.745288E1],"tree_param":{"num_deleted":"0","num_feature":"7","num_nodes":"9","size_leaf_vector":"1"}},{"base_weights":[4.159154E-2,-1.4818767E-1,5.653341E-1,6.3313514E-1,-1.0842533E-1,-9.857007E-2,2.0727006E-1],"categories":[],"categories_nodes":[],"categories_segments":[],"categories_sizes":[],"default_left":[0,0,0,0,0,0,0],"id":108,"left_children":[1,-1,3,5,-1,-1,-1],"loss_changes":[2.2232565E1,0E0,2.7444983E0,2.3196974E0,0E0,0E0,0E0],"parents":[2147483647,0,0,2,2,3,3],"right_children":[2,-1,4,6,-1,-1,-1],"split_conditions":[1.8226881E2,-1.4818767E-1,8.497849E1,7.995151E1,-1.0842533E-1,-9.857007E-2,2.0727006E-1],"split_indices":[6,0,4,4,0,0,0],"split_type":[0,0,0,0,0,0,0],"sum_hessian":[7.726757E1,3.823125E1,3.9036316E1,3.667034E1,2.3659747E0,1.8121824E0,3.485816E1],"tree_param":{"num_deleted":"0","num_feature":"7","num_nodes":"7","size_leaf_vector":"1"}},{"base_weights":[-3.4842856E-2,3.8910443E-1,-1.4784214E-1,-1.308736E-1,5.6008303E-1,1.8951052E-1,-1.016153E-1],"categories":[],"categories_nodes":[],"categories_segments":[],"categories_sizes":[],"default_left":[0,0,0,0,0,0,0],"id":109,"left_children":[1,3,-1,-1,5,-1,-1],"loss_changes":[1.4284646E1,5.6423483E0,0E0,0E0,2.2819157E0,0E0,0E0],"parents":[2147483647,0,0,1,1,4,4],"right_children":[2,4,-1,-1,6,-1,-1],"split_conditions":[5.9844994E1,6.9E1,-1.4784214E-1,-1.308736E-1,2.7022692E1,1.8951052E-1,-1.016153E-1],"split_indices":[6,0,0,0,3,0,0],"split_type":[0,0,0,0,0,0,0],"sum_hessian":[7.158665E1,3.7252018E1,3.433463E1,6.126525E0,3.1125492E1,2.9103617E1,2.021876E0],"tree_param":{"num_deleted":"0","num_feature":"7","num_nodes":"7","size_leaf_vector":"1"}},{"base_weights":[-4.412936E-2,-1.4701217E-1,5.1561767E-1,-9.477448E-2,1.7597592E-1],"categories":[],"categories_nodes":[],"categories_segments":[],"categories_sizes":[],"default_left":[0,0,0,0,0],"id":110,"left_children":[1,-1,3,-1,-1],"loss_changes":[1.4447174E1,0E0,1.7021384E0,0E0,0E0],"parents":[2147483647,0,0,2,2],"right_children":[2,-1,4,-1,-1],"split_conditions":[1.2E2,-1.4701217E-1,8.4134186E1,-9.477448E-2,1.7597592E-1],"split_indices":[1,0,4,0,0],"split_type":[0,0,0,0,0],"sum_hessian":[5.586957E1,3.1166187E1,2.4703382E1,1.6711551E0,2.3032227E1],